{"learner":{"attributes":{"scikit_learn":"{\"_estimator_type\": \"classifier\"}"},"feature_names":["fire_location_latitude","fire_location_longitude","general_cause_desc_Recreation","fire_spread_rate","fuel_type_C2","fuel_type_O1a","activity_class_Cooking and Warming","general_cause_desc_Lightning"],"feature_types":["float","float","int","float","int","int","int","int"],"gradient_booster":{"model":{"gbtree_model_param":{"num_parallel_tree":"1","num_trees":"250"},"iteration_indptr":[0,5,10,15,20,25,30,35,40,45,50,55,60,65,70,75,80,85,90,95,100,105,110,115,120,125,130,135,140,145,150,155,160,165,170,175,180,185,190,195,200,205,210,215,220,225,230,235,240,245,250],"tree_info":[0,1,2,3,4,0,1,2,3,4,0,1,2,3,4,0,1,2,3,4,0,1,2,3,4,0,1,2,3,4,0,1,2,3,4,0,1,2,3,4,0,1,2,3,4,0,1,2,3,4,0,1,2,3,4,0,1,2,3,4,0,1,2,3,4,0,1,2,3,4,0,1,2,3,4,0,1,2,3,4,0,1,2,3,4,0,1,2,3,4,0,1,2,3,4,0,1,2,3,4,0,1,2,3,4,0,1,2,3,4,0,1,2,3,4,0,1,2,3,4,0,1,2,3,4,0,1,2,3,4,0,1,2,3,4,0,1,2,3,4,0,1,2,3,4,0,1,2,3,4,0,1,2,3,4,0,1,2,3,4,0,1,2,3,4,0,1,2,3,4,0,1,2,3,4,0,1,2,3,4,0,1,2,3,4,0,1,2,3,4,0,1,2,3,4,0,1,2,3,4,0,1,2,3,4,0,1,2,3,4,0,1,2,3,4,0,1,2,3,4,0,1,2,3,4,0,1,2,3,4,0,1,2,3,4,0,1,2,3,4,0,1,2,3,4,0,1,2,3,4],"trees":[{"base_weights":[1.4692205E0,1.9074496E0,2.7952823E-1,1.7067003E0,2.3764226E0,7.9415065E-1,-2.7391508E-1,1.8406991E0,7.941024E-1,1.7980021E0,2.4687328E0,9.4421303E-1,3.6823505E-1,-1.0493249E-1,-3.822946E-1,1.9342819E-1,1.4302032E-1,5.1638763E-2,1.00660674E-1,1.8867463E-1,8.5450344E-2,2.4827893E-1,1.8724559E-1,6.7325205E-2,1.18248716E-1,1.0306058E-2,4.775059E-2,1.4005601E-3,-2.9668411E-2,-2.6629493E-2,-4.7470815E-2],"categories":[],"categories_nodes":[],"categories_segments":[],"categories_sizes":[],"default_left":[0,0,0,0,0,0,0,0,0,0,0,0,0,0,0,0,0,0,0,0,0,0,0,0,0,0,0,0,0,0,0],"id":0,"left_children":[1,3,5,7,9,11,13,15,17,19,21,23,25,27,29,-1,-1,-1,-1,-1,-1,-1,-1,-1,-1,-1,-1,-1,-1,-1,-1],"loss_changes":[3.0582295E3,3.995869E2,4.5037234E2,3.661084E2,6.404492E1,5.2013184E1,1.3920483E1,9.788965E1,2.2295624E1,1.3475952E1,4.599121E0,3.827478E1,6.182913E0,6.8287935E0,4.8480606E0,0E0,0E0,0E0,0E0,0E0,0E0,0E0,0E0,0E0,0E0,0E0,0E0,0E0,0E0,0E0,0E0],"parents":[2147483647,0,0,1,1,2,2,3,3,4,4,5,5,6,6,7,7,8,8,9,9,10,10,11,11,12,12,13,13,14,14],"right_children":[2,4,6,8,10,12,14,16,18,20,22,24,26,28,30,-1,-1,-1,-1,-1,-1,-1,-1,-1,-1,-1,-1,-1,-1,-1,-1],"split_conditions":[1E0,1E0,1.2E0,2E-1,1E0,5.765385E1,2.5E0,1E0,1E0,3E-1,5.6615932E1,1E0,-1.1794765E2,5.71073E1,5.6375336E1,1.9342819E-1,1.4302032E-1,5.1638763E-2,1.00660674E-1,1.8867463E-1,8.5450344E-2,2.4827893E-1,1.8724559E-1,6.7325205E-2,1.18248716E-1,1.0306058E-2,4.775059E-2,1.4005601E-3,-2.9668411E-2,-2.6629493E-2,-4.7470815E-2],"split_indices":[3,2,3,3,4,0,3,5,7,3,0,7,1,0,0,0,0,0,0,0,0,0,0,0,0,0,0,0,0,0,0],"split_type":[0,0,0,0,0,0,0,0,0,0,0,0,0,0,0,0,0,0,0,0,0,0,0,0,0,0,0,0,0,0,0],"sum_hessian":[5.8659204E3,4.2864004E3,1.5795201E3,3.0048003E3,1.2816001E3,8.1824005E2,7.6128E2,2.6192002E3,3.8560004E2,1.7920001E2,1.1024E3,6.0416003E2,2.1408002E2,2.9824002E2,4.6304004E2,2.1299202E3,4.8928003E2,1.6864001E2,2.1696002E2,1.6288E2,1.6320002E1,1.07392E3,2.8480001E1,2.8448E2,3.1968002E2,6.3040005E1,1.5104001E2,1.8464001E2,1.13600006E2,2.0704001E2,2.5600003E2],"tree_param":{"num_deleted":"0","num_feature":"8","num_nodes":"31","size_leaf_vector":"1"}},{"base_weights":[1.7706053E-1,-8.140131E-2,8.780654E-1,1.0313393E-1,-5.138001E-1,9.314165E-1,1.726593E-1,-1.4121058E-2,8.975685E-1,-1.1098779E-2,-5.954323E-1,8.0025387E-1,1.0950654E0,2.4818142E-1,-1.9114687E-1,-1.0380493E-2,3.757037E-2,1.1412402E-1,7.037988E-2,-1.0121457E-2,3.939394E-2,-6.0953375E-2,-6.105834E-3,8.872689E-2,4.4857766E-2,1.228253E-1,6.535947E-2,3.9744496E-2,2.0986358E-3,1.4056223E-2,-4.7619045E-2],"categories":[],"categories_nodes":[],"categories_segments":[],"categories_sizes":[],"default_left":[0,0,0,0,0,0,0,0,0,0,0,0,0,0,0,0,0,0,0,0,0,0,0,0,0,0,0,0,0,0,0],"id":1,"left_children":[1,3,5,7,9,11,13,15,17,19,21,23,25,27,29,-1,-1,-1,-1,-1,-1,-1,-1,-1,-1,-1,-1,-1,-1,-1,-1],"loss_changes":[1.0630576E3,3.421567E2,5.9320923E1,2.8000723E2,5.2626953E1,3.065857E1,3.134576E0,9.164378E1,1.7450592E1,6.6172323E0,8.277405E0,2.4671692E1,3.7470276E1,3.161748E0,1.9466193E0,0E0,0E0,0E0,0E0,0E0,0E0,0E0,0E0,0E0,0E0,0E0,0E0,0E0,0E0,0E0,0E0],"parents":[2147483647,0,0,1,1,2,2,3,3,4,4,5,5,6,6,7,7,8,8,9,9,10,10,11,11,12,12,13,13,14,14],"right_children":[2,4,6,8,10,12,14,16,18,20,22,24,26,28,30,-1,-1,-1,-1,-1,-1,-1,-1,-1,-1,-1,-1,-1,-1,-1,-1],"split_conditions":[1E0,1E0,7E0,2E-1,1E0,1.2E0,-1.1159872E2,1E0,1E0,1E-1,5.6615932E1,-1.1167838E2,4.5E0,5.6896667E1,1E0,-1.0380493E-2,3.757037E-2,1.1412402E-1,7.037988E-2,-1.0121457E-2,3.939394E-2,-6.0953375E-2,-6.105834E-3,8.872689E-2,4.4857766E-2,1.228253E-1,6.535947E-2,3.9744496E-2,2.0986358E-3,1.4056223E-2,-4.7619045E-2],"split_indices":[3,2,3,3,4,3,1,5,7,3,0,1,3,0,4,0,0,0,0,0,0,0,0,0,0,0,0,0,0,0,0],"split_type":[0,0,0,0,0,0,0,0,0,0,0,0,0,0,0,0,0,0,0,0,0,0,0,0,0,0,0,0,0,0,0],"sum_hessian":[5.8659204E3,4.2864004E3,1.5795201E3,3.0048003E3,1.2816001E3,1.4681602E3,1.1136001E2,2.6192002E3,3.8560004E2,1.7920001E2,1.1024E3,8.1824005E2,6.4992004E2,9.248E1,1.8880001E1,2.1299202E3,4.8928003E2,1.6864001E2,2.1696002E2,1.4720001E2,3.2000004E1,1.07392E3,2.8480001E1,6.5472003E2,1.6352E2,4.9792004E2,1.5200002E2,5.5360004E1,3.7120003E1,8.960001E0,9.920001E0],"tree_param":{"num_deleted":"0","num_feature":"8","num_nodes":"31","size_leaf_vector":"1"}},{"base_weights":[-4.8018378E-1,-5.6220967E-1,7.037445E-2,-5.8636934E-1,-4.351856E-1,-1.1350587E-1,3.389283E-1,-5.9067833E-1,-4.068646E-1,-4.4586784E-1,-7.293355E-2,3.5049286E-1,-1.5383877E-1,5.883877E-1,2.550933E-1,-5.704675E-2,-6.0526967E-2,-5.2828174E-2,-3.33135E-2,-3.8316242E-2,-4.9929675E-2,2.4096385E-2,-2.6717557E-2,1.08153075E-2,7.566765E-2,-1.8981334E-3,-2.1173084E-2,3.286385E-2,8.830146E-2,8.6626135E-2,2.1762686E-2],"categories":[],"categories_nodes":[],"categories_segments":[],"categories_sizes":[],"default_left":[0,0,0,0,0,0,0,0,0,0,0,0,0,0,0,0,0,0,0,0,0,0,0,0,0,0,0,0,0,0,0],"id":2,"left_children":[1,3,5,7,9,11,13,15,17,19,21,23,25,27,29,-1,-1,-1,-1,-1,-1,-1,-1,-1,-1,-1,-1,-1,-1,-1,-1],"loss_changes":[2.6498975E2,1.5415283E1,3.7649605E1,3.0760498E0,3.1401367E0,8.528557E0,6.3288918E0,8.886719E-1,7.525158E-1,2.476181E0,1.5691702E0,3.51299E0,3.2540712E0,5.614794E0,5.161433E0,0E0,0E0,0E0,0E0,0E0,0E0,0E0,0E0,0E0,0E0,0E0,0E0,0E0,0E0,0E0,0E0],"parents":[2147483647,0,0,1,1,2,2,3,3,4,4,5,5,6,6,7,7,8,8,9,9,10,10,11,11,12,12,13,13,14,14],"right_children":[2,4,6,8,10,12,14,16,18,20,22,24,26,28,30,-1,-1,-1,-1,-1,-1,-1,-1,-1,-1,-1,-1,-1,-1,-1,-1],"split_conditions":[1.5E0,1E0,3.5E0,5.8806984E1,5.9579967E1,-1.1880827E2,-1.17026985E2,1E0,1E0,1E0,-1.17647385E2,2.5E0,-1.1615583E2,-1.1822336E2,5.162855E1,-5.704675E-2,-6.0526967E-2,-5.2828174E-2,-3.33135E-2,-3.8316242E-2,-4.9929675E-2,2.4096385E-2,-2.6717557E-2,1.08153075E-2,7.566765E-2,-1.8981334E-3,-2.1173084E-2,3.286385E-2,8.830146E-2,8.6626135E-2,2.1762686E-2],"split_indices":[3,3,3,0,0,1,1,4,4,7,1,3,1,1,0,0,0,0,0,0,0,0,0,0,0,0,0,0,0,0,0],"split_type":[0,0,0,0,0,0,0,0,0,0,0,0,0,0,0,0,0,0,0,0,0,0,0,0,0,0,0,0,0,0,0],"sum_hessian":[5.8659204E3,5.1052803E3,7.606401E2,4.2864004E3,8.1888007E2,4.5184003E2,3.0880002E2,4.18368E3,1.0272001E2,7.952001E2,2.3680002E1,3.5520004E1,4.1632004E2,7.616E1,2.3264001E2,1.7708801E3,2.4128E3,3.6480003E1,6.6240005E1,3.6960004E2,4.2560004E2,8.960001E0,1.4720001E1,2.304E1,1.24800005E1,1.2544001E2,2.9088004E2,4.1600002E1,3.456E1,1.2160001E1,2.2048001E2],"tree_param":{"num_deleted":"0","num_feature":"8","num_nodes":"31","size_leaf_vector":"1"}},{"base_weights":[-5.836452E-1,-6.0841465E-1,-2.9394016E-1,-6.139107E-1,-5.1239115E-1,-3.6538664E-1,1.1235954E-2,-6.201713E-2,-5.8118385E-1,-5.396226E-1,-2.8901732E-1,-4.283657E-1,-1.854091E-1,6.5756194E-2,-3.8461536E-1,-6.003526E-2,-5.593888E-2,-3.628118E-2,-5.50008E-2,2.739726E-2,-3.3047732E-2,-4.4922173E-2,-1.2474012E-2,-2.9345373E-2,-5.9473235E-3,1.7501716E-2,-2.2935778E-2,-5.529954E-2,1.8518519E-2],"categories":[],"categories_nodes":[],"categories_segments":[],"categories_sizes":[],"default_left":[0,0,0,0,0,0,0,0,0,0,0,0,0,0,0,0,0,0,0,0,0,0,0,0,0,0,0,0,0],"id":3,"left_children":[1,3,5,7,9,11,13,-1,15,17,19,21,23,25,27,-1,-1,-1,-1,-1,-1,-1,-1,-1,-1,-1,-1,-1,-1],"loss_changes":[4.1921143E1,2.5373535E0,1.0121918E1,6.85791E-1,1.6603622E0,4.1829224E0,1.9460809E0,0E0,1.3427734E-2,2.870636E-1,8.981602E-1,1.7031136E0,1.3328755E0,2.5900316E0,1.1501045E0,0E0,0E0,0E0,0E0,0E0,0E0,0E0,0E0,0E0,0E0,0E0,0E0,0E0,0E0],"parents":[2147483647,0,0,1,1,2,2,3,3,4,4,5,5,6,6,8,8,9,9,10,10,11,11,12,12,13,13,14,14],"right_children":[2,4,6,8,10,12,14,-1,16,18,20,22,24,26,28,-1,-1,-1,-1,-1,-1,-1,-1,-1,-1,-1,-1,-1,-1],"split_conditions":[2.5E0,1.5E0,1E1,9E-1,5.9201683E1,5.79563E1,1E0,-6.201713E-2,-1.1501712E2,1.8E0,1.7E0,-1.106488E2,-1.17026985E2,1.6E1,-1.1153812E2,-6.003526E-2,-5.593888E-2,-3.628118E-2,-5.50008E-2,2.739726E-2,-3.3047732E-2,-4.4922173E-2,-1.2474012E-2,-2.9345373E-2,-5.9473235E-3,1.7501716E-2,-2.2935778E-2,-5.529954E-2,1.8518519E-2],"split_indices":[3,3,3,3,0,0,5,0,1,3,3,1,1,3,1,0,0,0,0,0,0,0,0,0,0,0,0,0,0],"split_type":[0,0,0,0,0,0,0,0,0,0,0,0,0,0,0,0,0,0,0,0,0,0,0,0,0,0,0,0,0],"sum_hessian":[5.8659204E3,5.4028804E3,4.6304004E2,5.1052803E3,2.976E2,3.7504004E2,8.800001E1,4.2704004E3,8.3488007E2,2.6400003E2,3.3600002E1,2.7680002E2,9.8240005E1,7.808E1,9.920001E0,4.3008002E2,4.0480002E2,1.6640001E1,2.4736002E2,1.9200001E0,3.1680002E1,2.5856003E2,1.8240002E1,5.2160004E1,4.608E1,5.7280003E1,2.0800001E1,7.6800003E0,2.2400002E0],"tree_param":{"num_deleted":"0","num_feature":"8","num_nodes":"29","size_leaf_vector":"1"}},{"base_weights":[-5.824521E-1,-6.007966E-1,-1.9140565E-1,-6.1045617E-1,-4.0562788E-1,-3.4676126E-1,1.1037527E-1,-6.181559E-1,-5.2007896E-1,-4.5114538E-1,6.401384E-1,-4.3512866E-1,1.9999999E-1,-1.3698629E-2,5.913978E-1,-6.22453E-2,-5.9317924E-2,-5.693831E-2,-4.0031396E-2,-5.1669814E-2,-2.5877452E-2,-4.3209877E-2,9.44206E-2,-5.2054793E-2,-3.504317E-2,-1.6393444E-2,5.0724637E-2,-7.6660984E-3,1.235955E-1,1.9313304E-2,8.949416E-2],"categories":[],"categories_nodes":[],"categories_segments":[],"categories_sizes":[],"default_left":[0,0,0,0,0,0,0,0,0,0,0,0,0,0,0,0,0,0,0,0,0,0,0,0,0,0,0,0,0,0,0],"id":4,"left_children":[1,3,5,7,9,11,13,15,17,19,21,23,25,27,29,-1,-1,-1,-1,-1,-1,-1,-1,-1,-1,-1,-1,-1,-1,-1,-1],"loss_changes":[4.19718E1,1.031665E1,1.2432359E1,3.392456E0,1.3009598E1,8.530708E0,5.4153223E0,1.5820312E-1,2.2835464E0,3.1031418E0,4.1769266E0,9.0829086E-1,2.878593E0,5.838473E0,2.075725E0,0E0,0E0,0E0,0E0,0E0,0E0,0E0,0E0,0E0,0E0,0E0,0E0,0E0,0E0,0E0,0E0],"parents":[2147483647,0,0,1,1,2,2,3,3,4,4,5,5,6,6,7,7,8,8,9,9,10,10,11,11,12,12,13,13,14,14],"right_children":[2,4,6,8,10,12,14,16,18,20,22,24,26,28,30,-1,-1,-1,-1,-1,-1,-1,-1,-1,-1,-1,-1,-1,-1,-1,-1],"split_conditions":[4.5E0,5.8730934E1,5.7200115E1,1.5E0,-1.1073935E2,1.5E1,5.9265568E1,1E0,5.7072918E1,1.7E0,2E-1,1E0,1E0,-1.103692E2,5.7E0,-6.22453E-2,-5.9317924E-2,-5.693831E-2,-4.0031396E-2,-5.1669814E-2,-2.5877452E-2,-4.3209877E-2,9.44206E-2,-5.2054793E-2,-3.504317E-2,-1.6393444E-2,5.0724637E-2,-7.6660984E-3,1.235955E-1,1.9313304E-2,8.949416E-2],"split_indices":[3,0,0,3,1,3,0,3,0,3,3,4,4,1,3,0,0,0,0,0,0,0,0,0,0,0,0,0,0,0,0],"split_type":[0,0,0,0,0,0,0,0,0,0,0,0,0,0,0,0,0,0,0,0,0,0,0,0,0,0,0,0,0,0,0],"sum_hessian":[5.8659204E3,5.6025605E3,2.6336002E2,5.3363203E3,2.6624002E2,1.7376001E2,8.9600006E1,4.9120005E3,4.2432004E2,2.5568002E2,1.056E1,1.4976001E2,2.4000002E1,7.200001E1,1.76E1,4.17056E3,7.4144006E2,2.9792E2,1.2640001E2,1.8944002E2,6.6240005E1,2.2400002E0,8.320001E0,7.200001E1,7.776E1,1.1200001E1,1.2800001E1,6.944E1,2.5600002E0,8.320001E0,9.280001E0],"tree_param":{"num_deleted":"0","num_feature":"8","num_nodes":"31","size_leaf_vector":"1"}},{"base_weights":[1.2359668E0,1.5579867E0,2.569003E-1,1.4129385E0,1.882702E0,7.028476E-1,-2.6186922E-1,1.5102975E0,7.0111686E-1,1.4806125E0,1.9441721E0,8.2918197E-1,3.315116E-1,-9.8131195E-2,-3.690442E-1,1.5436615E-1,8.3104454E-2,4.6497088E-2,8.7574996E-2,1.5817891E-1,9.682831E-2,1.9455779E-1,1.3616656E-2,5.9869286E-2,1.0260484E-1,8.96906E-3,4.2894885E-2,1.4304704E-3,-2.8377721E-2,-2.5522951E-2,-4.6138883E-2],"categories":[],"categories_nodes":[],"categories_segments":[],"categories_sizes":[],"default_left":[0,0,0,0,0,0,0,0,0,0,0,0,0,0,0,0,0,0,0,0,0,0,0,0,0,0,0,0,0,0,0],"id":5,"left_children":[1,3,5,7,9,11,13,15,17,19,21,23,25,27,29,-1,-1,-1,-1,-1,-1,-1,-1,-1,-1,-1,-1,-1,-1,-1,-1],"loss_changes":[2.0515059E3,2.2799707E2,3.731078E2,2.3381592E2,3.4421387E1,4.040332E1,1.3052994E1,6.626172E1,1.6485931E1,9.058868E0,3.053711E0,2.8713074E1,5.18725E0,6.1916943E0,4.6164856E0,0E0,0E0,0E0,0E0,0E0,0E0,0E0,0E0,0E0,0E0,0E0,0E0,0E0,0E0,0E0,0E0],"parents":[2147483647,0,0,1,1,2,2,3,3,4,4,5,5,6,6,7,7,8,8,9,9,10,10,11,11,12,12,13,13,14,14],"right_children":[2,4,6,8,10,12,14,16,18,20,22,24,26,28,30,-1,-1,-1,-1,-1,-1,-1,-1,-1,-1,-1,-1,-1,-1,-1,-1],"split_conditions":[1E0,1E0,1.2E0,2E-1,1E0,5.765385E1,2.5E0,5.8696167E1,1E0,1E-1,5.9579967E1,1E0,-1.1794765E2,5.71073E1,5.6375336E1,1.5436615E-1,8.3104454E-2,4.6497088E-2,8.7574996E-2,1.5817891E-1,9.682831E-2,1.9455779E-1,1.3616656E-2,5.9869286E-2,1.0260484E-1,8.96906E-3,4.2894885E-2,1.4304704E-3,-2.8377721E-2,-2.5522951E-2,-4.6138883E-2],"split_indices":[3,2,3,3,4,0,3,0,7,3,0,7,1,0,0,0,0,0,0,0,0,0,0,0,0,0,0,0,0,0,0],"split_type":[0,0,0,0,0,0,0,0,0,0,0,0,0,0,0,0,0,0,0,0,0,0,0,0,0,0,0,0,0,0,0],"sum_hessian":[6.5072266E3,4.896238E3,1.610989E3,3.388132E3,1.5081056E3,8.66107E2,7.448821E2,2.9794917E3,4.0864038E2,2.0330838E2,1.3047972E3,6.453244E2,2.2078255E2,2.954381E2,4.4944394E2,2.8387825E3,1.4070941E2,1.752809E2,2.3335948E2,1.680365E2,3.5271885E1,1.3037075E3,1.0896626E0,2.99138E2,3.461864E2,6.3961826E1,1.5682072E2,1.8457426E2,1.1086385E2,2.0300471E2,2.4643924E2],"tree_param":{"num_deleted":"0","num_feature":"8","num_nodes":"31","size_leaf_vector":"1"}},{"base_weights":[1.6587783E-1,-7.43668E-2,7.715618E-1,9.849292E-2,-4.9996832E-1,8.154357E-1,1.5942092E-1,-1.0388045E-2,7.8634626E-1,-7.983684E-3,-5.8377373E-1,9.5313877E-1,7.100416E-1,2.2959417E-1,-1.8673724E-1,-9.525534E-3,3.450182E-2,8.2625315E-2,-1.1484245E-2,-9.329178E-3,3.612359E-2,-5.9837084E-2,-5.5025066E-3,1.0056287E-1,6.304256E-2,5.8485985E-2,8.57412E-2,1.7504059E-2,7.851539E-2,1.2763134E-2,-4.6725374E-2],"categories":[],"categories_nodes":[],"categories_segments":[],"categories_sizes":[],"default_left":[0,0,0,0,0,0,0,0,0,0,0,0,0,0,0,0,0,0,0,0,0,0,0,0,0,0,0,0,0,0,0],"id":6,"left_children":[1,3,5,7,9,11,13,15,17,19,21,23,25,27,29,-1,-1,-1,-1,-1,-1,-1,-1,-1,-1,-1,-1,-1,-1,-1,-1],"loss_changes":[8.625855E2,3.1235226E2,4.508423E1,2.261674E2,5.0556732E1,2.211853E1,2.8080552E0,7.8697334E1,1.4936539E1,5.6874695E0,8.054169E0,1.0851501E1,1.5984375E1,2.744739E0,1.8002949E0,0E0,0E0,0E0,0E0,0E0,0E0,0E0,0E0,0E0,0E0,0E0,0E0,0E0,0E0,0E0,0E0],"parents":[2147483647,0,0,1,1,2,2,3,3,4,4,5,5,6,6,7,7,8,8,9,9,10,10,11,11,12,12,13,13,14,14],"right_children":[2,4,6,8,10,12,14,16,18,20,22,24,26,28,30,-1,-1,-1,-1,-1,-1,-1,-1,-1,-1,-1,-1,-1,-1,-1,-1],"split_conditions":[1E0,1E0,7E0,2E-1,1E0,1E0,-1.1159872E2,1E0,8.696922E-1,1E-1,5.6615932E1,-1.1074485E2,1.7E0,-1.1244617E2,1E0,-9.525534E-3,3.450182E-2,8.2625315E-2,-1.1484245E-2,-9.329178E-3,3.612359E-2,-5.9837084E-2,-5.5025066E-3,1.0056287E-1,6.304256E-2,5.8485985E-2,8.57412E-2,1.7504059E-2,7.851539E-2,1.2763134E-2,-4.6725374E-2],"split_indices":[3,2,3,3,4,7,1,5,3,3,0,1,3,1,4,0,0,0,0,0,0,0,0,0,0,0,0,0,0,0,0],"split_type":[0,0,0,0,0,0,0,0,0,0,0,0,0,0,0,0,0,0,0,0,0,0,0,0,0,0,0,0,0,0,0],"sum_hessian":[5.9265264E3,4.2440146E3,1.6825118E3,3.018719E3,1.2252959E3,1.5696764E3,1.12835434E2,2.607034E3,4.11685E2,1.7849944E2,1.0467964E3,6.770416E2,8.9263477E2,9.409684E1,1.8738592E1,2.105092E3,5.0194193E2,3.9430725E2,1.7377747E1,1.4560481E2,3.289463E1,1.01854584E3,2.8250582E1,5.805051E2,9.65365E1,4.8533896E2,4.0729578E2,8.688061E1,7.2162323E0,9.093133E0,9.645459E0],"tree_param":{"num_deleted":"0","num_feature":"8","num_nodes":"31","size_leaf_vector":"1"}},{"base_weights":[-4.665903E-1,-5.501366E-1,6.67357E-2,-5.7491696E-1,-4.2167E-1,-1.0639041E-1,3.1122443E-1,-5.793777E-1,-3.9133E-1,-4.3240833E-1,-6.7710765E-2,3.3154592E-1,-1.4555065E-1,5.3651357E-1,2.3420213E-1,-5.5875864E-2,-5.9432626E-2,-5.1514912E-2,-3.1714067E-2,-3.7082024E-2,-4.856254E-2,2.276772E-2,-2.5644684E-2,1.0610378E-2,6.954596E-2,-2.0857263E-2,-2.2994138E-3,3.0239776E-2,7.944723E-2,7.7835836E-2,1.9966902E-2],"categories":[],"categories_nodes":[],"categories_segments":[],"categories_sizes":[],"default_left":[0,0,0,0,0,0,0,0,0,0,0,0,0,0,0,0,0,0,0,0,0,0,0,0,0,0,0,0,0,0,0],"id":7,"left_children":[1,3,5,7,9,11,13,15,17,19,21,23,25,27,29,-1,-1,-1,-1,-1,-1,-1,-1,-1,-1,-1,-1,-1,-1,-1,-1],"loss_changes":[2.5128284E2,1.5277344E1,3.239544E1,3.1177979E0,2.9813385E0,7.737439E0,5.3787537E0,8.963623E-1,7.54859E-1,2.338913E0,1.4247063E0,2.970469E0,3.1793242E0,4.593832E0,4.3201447E0,0E0,0E0,0E0,0E0,0E0,0E0,0E0,0E0,0E0,0E0,0E0,0E0,0E0,0E0,0E0,0E0],"parents":[2147483647,0,0,1,1,2,2,3,3,4,4,5,5,6,6,7,7,8,8,9,9,10,10,11,11,12,12,13,13,14,14],"right_children":[2,4,6,8,10,12,14,16,18,20,22,24,26,28,30,-1,-1,-1,-1,-1,-1,-1,-1,-1,-1,-1,-1,-1,-1,-1,-1],"split_conditions":[1.5E0,1E0,3.5E0,5.8806984E1,5.9579967E1,-1.1880827E2,-1.17026985E2,1E0,1E0,1E0,-1.17647385E2,2.5E0,2.5E0,-1.1822336E2,5.162855E1,-5.5875864E-2,-5.9432626E-2,-5.1514912E-2,-3.1714067E-2,-3.7082024E-2,-4.856254E-2,2.276772E-2,-2.5644684E-2,1.0610378E-2,6.954596E-2,-2.0857263E-2,-2.2994138E-3,3.0239776E-2,7.944723E-2,7.7835836E-2,1.9966902E-2],"split_indices":[3,3,3,0,0,1,1,4,4,7,1,3,3,1,0,0,0,0,0,0,0,0,0,0,0,0,0,0,0,0,0],"split_type":[0,0,0,0,0,0,0,0,0,0,0,0,0,0,0,0,0,0,0,0,0,0,0,0,0,0,0,0,0,0,0],"sum_hessian":[5.6377036E3,4.874132E3,7.6357196E2,4.0830615E3,7.910701E2,4.473568E2,3.1621518E2,3.984102E3,9.895952E1,7.675623E2,2.3507807E1,3.610635E1,4.1125046E2,7.904473E1,2.3717046E2,1.6905924E3,2.2935095E3,3.4850952E1,6.410857E1,3.5949127E2,4.0807104E2,9.084098E0,1.4423709E1,2.3092352E1,1.3013998E1,2.7112738E2,1.401231E2,4.2576138E1,3.6468594E1,1.2867714E1,2.2430273E2],"tree_param":{"num_deleted":"0","num_feature":"8","num_nodes":"31","size_leaf_vector":"1"}},{"base_weights":[-5.723022E-1,-5.978225E-1,-2.817338E-1,-6.0348904E-1,-4.99809E-1,-3.635771E-1,-2.8413622E-2,-6.0989983E-2,-5.701556E-1,-5.277626E-1,-2.736619E-1,-4.3321335E-1,-1.9787219E-1,-5.126139E-2,6.8729043E-1,-5.898275E-2,-5.4787267E-2,-3.4925077E-2,-5.3839404E-2,2.671324E-2,-3.1516206E-2,-4.59292E-2,-7.989891E-3,-2.3607304E-2,1.2489867E-2,-4.690692E-4,-3.6442235E-2,9.7598046E-2,9.454106E-3],"categories":[],"categories_nodes":[],"categories_segments":[],"categories_sizes":[],"default_left":[0,0,0,0,0,0,0,0,0,0,0,0,0,0,0,0,0,0,0,0,0,0,0,0,0,0,0,0,0],"id":8,"left_children":[1,3,5,7,9,11,13,-1,15,17,19,21,23,25,27,-1,-1,-1,-1,-1,-1,-1,-1,-1,-1,-1,-1,-1,-1],"loss_changes":[4.13136E1,2.553833E0,9.3927E0,6.8981934E-1,1.6687698E0,3.8687782E0,1.8639716E0,0E0,2.6916504E-2,2.9438782E-1,8.3896136E-1,2.1788864E0,1.3025146E0,1.5924101E0,5.1163256E-1,0E0,0E0,0E0,0E0,0E0,0E0,0E0,0E0,0E0,0E0,0E0,0E0,0E0,0E0],"parents":[2147483647,0,0,1,1,2,2,3,3,4,4,5,5,6,6,8,8,9,9,10,10,11,11,12,12,13,13,14,14],"right_children":[2,4,6,8,10,12,14,-1,16,18,20,22,24,26,28,-1,-1,-1,-1,-1,-1,-1,-1,-1,-1,-1,-1,-1,-1],"split_conditions":[2.5E0,1.5E0,7E0,9E-1,5.9201683E1,5.7711334E1,5.97716E1,-6.0989983E-2,-1.1501712E2,1.8E0,1.7E0,-1.106488E2,5.965815E1,1E0,-1.175233E2,-5.898275E-2,-5.4787267E-2,-3.4925077E-2,-5.3839404E-2,2.671324E-2,-3.1516206E-2,-4.59292E-2,-7.989891E-3,-2.3607304E-2,1.2489867E-2,-4.690692E-4,-3.6442235E-2,9.7598046E-2,9.454106E-3],"split_indices":[3,3,3,3,0,0,0,0,1,3,3,1,0,5,1,0,0,0,0,0,0,0,0,0,0,0,0,0,0],"split_type":[0,0,0,0,0,0,0,0,0,0,0,0,0,0,0,0,0,0,0,0,0,0,0,0,0,0,0,0,0],"sum_hessian":[5.593018E3,5.1404785E3,4.5253943E2,4.854654E3,2.8582468E2,3.4170523E2,1.1083421E2,4.0570935E3,7.975604E2,2.5319414E2,3.263053E1,2.394597E2,1.02245514E2,1.08305115E2,2.5291011E0,4.1007053E2,3.874899E2,1.6134346E1,2.370598E2,1.9380896E0,3.069244E1,2.2272044E2,1.6739271E1,9.1665276E1,1.0580237E1,9.5167564E1,1.3137552E1,1.2659882E0,1.2631128E0],"tree_param":{"num_deleted":"0","num_feature":"8","num_nodes":"29","size_leaf_vector":"1"}},{"base_weights":[-5.71073E-1,-5.8995867E-1,-1.8202713E-1,-5.999543E-1,-3.9101332E-1,-3.351095E-1,1.0728104E-1,-6.07882E-1,-5.078847E-1,-4.3701094E-1,5.9760356E-1,-4.2348975E-1,1.9136631E-1,-1.1056919E-2,5.519224E-1,-6.122836E-2,-5.8239687E-2,-5.5826236E-2,-3.8708583E-2,-5.039096E-2,-2.437248E-2,-4.209456E-2,8.653631E-2,-5.0961204E-2,-3.3913516E-2,-1.5518084E-2,4.7245007E-2,-7.206045E-3,1.13238595E-1,1.9014211E-2,8.1453264E-2],"categories":[],"categories_nodes":[],"categories_segments":[],"categories_sizes":[],"default_left":[0,0,0,0,0,0,0,0,0,0,0,0,0,0,0,0,0,0,0,0,0,0,0,0,0,0,0,0,0,0,0],"id":9,"left_children":[1,3,5,7,9,11,13,15,17,19,21,23,25,27,29,-1,-1,-1,-1,-1,-1,-1,-1,-1,-1,-1,-1,-1,-1,-1,-1],"loss_changes":[4.0996216E1,1.03741455E1,1.1570383E1,3.397705E0,1.199749E1,8.017324E0,4.787983E0,1.6723633E-1,2.270729E0,3.0735168E0,3.6088085E0,8.904247E-1,2.528565E0,5.156686E0,1.6618915E0,0E0,0E0,0E0,0E0,0E0,0E0,0E0,0E0,0E0,0E0,0E0,0E0,0E0,0E0,0E0,0E0],"parents":[2147483647,0,0,1,1,2,2,3,3,4,4,5,5,6,6,7,7,8,8,9,9,10,10,11,11,12,12,13,13,14,14],"right_children":[2,4,6,8,10,12,14,16,18,20,22,24,26,28,30,-1,-1,-1,-1,-1,-1,-1,-1,-1,-1,-1,-1,-1,-1,-1,-1],"split_conditions":[4.5E0,5.8730934E1,5.7200115E1,1.5E0,-1.1073935E2,1.5E1,5.9265568E1,1E0,5.7072918E1,1.7E0,2E-1,1E0,1E0,-1.103692E2,5.7E0,-6.122836E-2,-5.8239687E-2,-5.5826236E-2,-3.8708583E-2,-5.039096E-2,-2.437248E-2,-4.209456E-2,8.653631E-2,-5.0961204E-2,-3.3913516E-2,-1.5518084E-2,4.7245007E-2,-7.206045E-3,1.13238595E-1,1.9014211E-2,8.1453264E-2],"split_indices":[3,0,0,3,1,3,0,3,0,3,3,4,4,1,3,0,0,0,0,0,0,0,0,0,0,0,0,0,0,0,0],"split_type":[0,0,0,0,0,0,0,0,0,0,0,0,0,0,0,0,0,0,0,0,0,0,0,0,0,0,0,0,0,0,0],"sum_hessian":[5.593318E3,5.333876E3,2.5944165E2,5.0767876E3,2.5708865E2,1.6956238E2,8.987927E1,4.6691426E3,4.0764468E2,2.4619197E2,1.0896682E1,1.4535674E2,2.4205635E1,7.175686E1,1.8122417E1,3.9618633E3,7.072795E2,2.851183E2,1.2252641E2,1.8169731E2,6.449466E1,2.1491766E0,8.747505E0,6.9430244E1,7.592649E1,1.1041064E1,1.316457E1,6.901199E1,2.744862E0,8.347157E0,9.77526E0],"tree_param":{"num_deleted":"0","num_feature":"8","num_nodes":"31","size_leaf_vector":"1"}},{"base_weights":[1.0673298E0,1.319604E0,2.3700354E-1,1.1080649E0,1.4671124E0,6.288941E-1,-2.5065383E-1,1.1832836E0,5.0500524E-1,1.5342468E0,1.0360818E0,7.379025E-1,2.9982108E-1,-9.4117634E-2,-3.556933E-1,1.1085466E-1,1.4253469E-1,3.6346704E-2,7.6714106E-2,1.6044106E-1,1.3990796E-1,1.1690587E-1,4.2908892E-2,5.4672875E-2,9.177353E-2,6.003777E-3,3.810529E-2,1.215292E-3,-2.7347116E-2,-2.4385756E-2,-4.481542E-2],"categories":[],"categories_nodes":[],"categories_segments":[],"categories_sizes":[],"default_left":[0,0,0,0,0,0,0,0,0,0,0,0,0,0,0,0,0,0,0,0,0,0,0,0,0,0,0,0,0,0,0],"id":10,"left_children":[1,3,5,7,9,11,13,15,17,19,21,23,25,27,29,-1,-1,-1,-1,-1,-1,-1,-1,-1,-1,-1,-1,-1,-1,-1,-1],"loss_changes":[1.4711958E3,1.6649121E2,3.1323282E2,9.9992676E1,9.017529E1,3.237094E1,1.1979954E1,3.407495E1,8.909946E0,2.3757324E1,3.4241608E1,2.2938293E1,4.413561E0,5.621376E0,4.4082184E0,0E0,0E0,0E0,0E0,0E0,0E0,0E0,0E0,0E0,0E0,0E0,0E0,0E0,0E0,0E0,0E0],"parents":[2147483647,0,0,1,1,2,2,3,3,4,4,5,5,6,6,7,7,8,8,9,9,10,10,11,11,12,12,13,13,14,14],"right_children":[2,4,6,8,10,12,14,16,18,20,22,24,26,28,30,-1,-1,-1,-1,-1,-1,-1,-1,-1,-1,-1,-1,-1,-1,-1,-1],"split_conditions":[1E0,1E0,1.2E0,2E-1,5.7171185E1,5.765385E1,2.5E0,1E0,-1.145425E2,5.4525116E1,5.8806984E1,5.588505E1,-1.1827773E2,5.71073E1,5.6375336E1,1.1085466E-1,1.4253469E-1,3.6346704E-2,7.6714106E-2,1.6044106E-1,1.3990796E-1,1.1690587E-1,4.2908892E-2,5.4672875E-2,9.177353E-2,6.003777E-3,3.810529E-2,1.215292E-3,-2.7347116E-2,-2.4385756E-2,-4.481542E-2],"split_indices":[3,4,3,3,0,0,3,7,1,0,0,0,1,0,0,0,0,0,0,0,0,0,0,0,0,0,0,0,0,0,0],"split_type":[0,0,0,0,0,0,0,0,0,0,0,0,0,0,0,0,0,0,0,0,0,0,0,0,0,0,0,0,0,0,0],"sum_hessian":[7.0239146E3,5.386706E3,1.6372083E3,2.2165312E3,3.1701748E3,9.0757465E2,7.296336E2,1.9698702E3,2.4666103E2,2.740737E3,4.2943768E2,6.8080835E2,2.2676625E2,2.9375626E2,4.3587735E2,1.5094176E3,4.6045273E2,1.6172528E2,8.493573E1,1.7970438E3,9.436933E2,3.515056E2,7.793207E1,3.3195697E2,3.488514E2,5.782253E1,1.6894373E2,1.8504538E2,1.0871087E2,1.9891626E2,2.3696107E2],"tree_param":{"num_deleted":"0","num_feature":"8","num_nodes":"31","size_leaf_vector":"1"}},{"base_weights":[1.563972E-1,-6.7049794E-2,6.849622E-1,9.507788E-2,-4.8648435E-1,7.4660456E-1,3.581174E-1,-6.5929614E-2,4.9959368E-1,-4.258319E-3,-5.727681E-1,6.285538E-1,9.308775E-1,5.0674564E-1,9.670222E-2,-1.6022092E-2,2.9666334E-2,7.700462E-2,2.8916245E-2,-5.973344E-3,4.8201025E-2,-5.879881E-2,-4.278585E-3,7.390008E-2,4.4889983E-2,1.0056763E-1,4.991502E-2,6.8093516E-2,1.8352969E-2,1.6995078E-2,-2.3570819E-2],"categories":[],"categories_nodes":[],"categories_segments":[],"categories_sizes":[],"default_left":[0,0,0,0,0,0,0,0,0,0,0,0,0,0,0,0,0,0,0,0,0,0,0,0,0,0,0,0,0,0,0],"id":11,"left_children":[1,3,5,7,9,11,13,15,17,19,21,23,25,27,29,-1,-1,-1,-1,-1,-1,-1,-1,-1,-1,-1,-1,-1,-1,-1,-1],"loss_changes":[7.0520715E2,2.854796E2,3.547705E1,1.9725385E2,4.8692627E1,3.1864807E1,1.0963257E1,7.413153E1,4.8848557E1,4.8474603E0,7.9821777E0,1.7770508E1,1.8240723E1,1.0035004E1,2.5715852E0,0E0,0E0,0E0,0E0,0E0,0E0,0E0,0E0,0E0,0E0,0E0,0E0,0E0,0E0,0E0,0E0],"parents":[2147483647,0,0,1,1,2,2,3,3,4,4,5,5,6,6,7,7,8,8,9,9,10,10,11,11,12,12,13,13,14,14],"right_children":[2,4,6,8,10,12,14,16,18,20,22,24,26,28,30,-1,-1,-1,-1,-1,-1,-1,-1,-1,-1,-1,-1,-1,-1,-1,-1],"split_conditions":[1E0,1E0,5E0,1E-1,1E0,1.2E0,5.7072918E1,1E0,1E0,3E-1,5.6615932E1,-1.1447982E2,5.871652E1,9E0,5.9265568E1,-1.6022092E-2,2.9666334E-2,7.700462E-2,2.8916245E-2,-5.973344E-3,4.8201025E-2,-5.879881E-2,-4.278585E-3,7.390008E-2,4.4889983E-2,1.0056763E-1,4.991502E-2,6.8093516E-2,1.8352969E-2,1.6995078E-2,-2.3570819E-2],"split_indices":[3,2,3,3,4,3,0,5,7,3,0,1,0,3,0,0,0,0,0,0,0,0,0,0,0,0,0,0,0,0,0],"split_type":[0,0,0,0,0,0,0,0,0,0,0,0,0,0,0,0,0,0,0,0,0,0,0,0,0,0,0,0,0,0,0],"sum_hessian":[5.9695654E3,4.196429E3,1.7731366E3,3.0271082E3,1.169321E3,1.4907076E3,2.8242896E2,2.165873E3,8.6123505E2,1.7762923E2,9.916918E2,9.1130774E2,5.7939984E2,1.7945876E2,1.0297019E2,1.7193253E3,4.4654767E2,3.757065E2,4.8552853E2,1.6022716E2,1.7402082E1,9.639011E2,2.7790628E1,5.624273E2,3.4888043E2,4.9270667E2,8.6693184E1,1.1589382E2,6.3564938E1,8.477767E1,1.8192516E1],"tree_param":{"num_deleted":"0","num_feature":"8","num_nodes":"31","size_leaf_vector":"1"}},{"base_weights":[-4.534042E-1,-5.385687E-1,6.2957354E-2,-5.640981E-1,-4.0815055E-1,-1.0142091E-1,2.8916284E-1,-5.6868345E-1,-3.794102E-1,-4.1891593E-1,-6.42766E-2,7.118262E-2,-1.9529185E-1,4.9596444E-1,2.1751595E-1,-5.4741032E-2,-5.8416504E-2,-5.0485045E-2,-3.0522684E-2,-3.5664614E-2,-4.731494E-2,2.1239854E-2,-2.4673706E-2,-2.807276E-3,3.0677522E-2,-3.0261163E-2,-3.016206E-4,2.8295277E-2,7.248672E-2,7.0684336E-2,1.8552901E-2],"categories":[],"categories_nodes":[],"categories_segments":[],"categories_sizes":[],"default_left":[0,0,0,0,0,0,0,0,0,0,0,0,0,0,0,0,0,0,0,0,0,0,0,0,0,0,0,0,0,0,0],"id":12,"left_children":[1,3,5,7,9,11,13,15,17,19,21,23,25,27,29,-1,-1,-1,-1,-1,-1,-1,-1,-1,-1,-1,-1,-1,-1,-1,-1],"loss_changes":[2.3812646E2,1.5244385E1,2.8565264E1,3.0737305E0,2.8031235E0,7.2272534E0,4.6814537E0,9.276123E-1,7.4951553E-1,2.3339844E0,1.2835506E0,3.6930594E0,5.9551144E0,3.8121796E0,3.654292E0,0E0,0E0,0E0,0E0,0E0,0E0,0E0,0E0,0E0,0E0,0E0,0E0,0E0,0E0,0E0,0E0],"parents":[2147483647,0,0,1,1,2,2,3,3,4,4,5,5,6,6,7,7,8,8,9,9,10,10,11,11,12,12,13,13,14,14],"right_children":[2,4,6,8,10,12,14,16,18,20,22,24,26,28,30,-1,-1,-1,-1,-1,-1,-1,-1,-1,-1,-1,-1,-1,-1,-1,-1],"split_conditions":[1.5E0,1E0,3.5E0,5.8806984E1,5.9579967E1,-1.1621538E2,-1.17026985E2,1E0,1E0,1E0,-1.17647385E2,5.8806984E1,2.5E0,-1.1822336E2,5.162855E1,-5.4741032E-2,-5.8416504E-2,-5.0485045E-2,-3.0522684E-2,-3.5664614E-2,-4.731494E-2,2.1239854E-2,-2.4673706E-2,-2.807276E-3,3.0677522E-2,-3.0261163E-2,-3.016206E-4,2.8295277E-2,7.248672E-2,7.0684336E-2,1.8552901E-2],"split_indices":[3,3,3,0,0,1,1,4,4,7,1,0,3,1,0,0,0,0,0,0,0,0,0,0,0,0,0,0,0,0,0],"split_type":[0,0,0,0,0,0,0,0,0,0,0,0,0,0,0,0,0,0,0,0,0,0,0,0,0,0,0,0,0,0,0],"sum_hessian":[5.41319E3,4.64675E3,7.664403E2,3.8832712E3,7.6347864E2,4.4420126E2,3.2223907E2,3.7871672E3,9.610396E1,7.4009094E2,2.3387651E1,1.5656387E2,2.876374E2,8.139066E1,2.4084842E2,1.6105248E3,2.1766426E3,3.35564E1,6.2547558E1,3.480467E2,3.9204428E2,9.229046E0,1.4158607E1,1.1077508E2,4.57888E1,1.8423286E2,1.0340451E2,4.331699E1,3.8073677E1,1.3483514E1,2.273649E2],"tree_param":{"num_deleted":"0","num_feature":"8","num_nodes":"31","size_leaf_vector":"1"}},{"base_weights":[-5.616317E-1,-5.8802944E-1,-2.691647E-1,-5.938509E-1,-4.8885778E-1,-3.3905238E-1,1.3555972E-2,-6.0045816E-2,-5.597002E-1,-5.173975E-1,-2.6167816E-1,-4.0382582E-1,-1.5757795E-1,6.3730374E-2,-3.6688238E-1,-5.8015276E-2,-5.3660434E-2,-3.3848535E-2,-5.2822053E-2,2.5388286E-2,-3.0280892E-2,-4.250071E-2,-1.0818956E-2,-2.0054517E-2,1.3513434E-2,1.6300423E-2,-2.1454528E-2,-5.3954154E-2,1.8737864E-2],"categories":[],"categories_nodes":[],"categories_segments":[],"categories_sizes":[],"default_left":[0,0,0,0,0,0,0,0,0,0,0,0,0,0,0,0,0,0,0,0,0,0,0,0,0,0,0,0,0],"id":13,"left_children":[1,3,5,7,9,11,13,-1,15,17,19,21,23,25,27,-1,-1,-1,-1,-1,-1,-1,-1,-1,-1,-1,-1,-1,-1],"loss_changes":[4.09657E1,2.5297852E0,8.754078E0,7.038574E-1,1.6573334E0,4.110325E0,1.7170594E0,0E0,4.8599243E-2,2.948761E-1,7.7416015E-1,1.5886688E0,1.2224581E0,2.2240758E0,1.1046426E0,0E0,0E0,0E0,0E0,0E0,0E0,0E0,0E0,0E0,0E0,0E0,0E0,0E0,0E0],"parents":[2147483647,0,0,1,1,2,2,3,3,4,4,5,5,6,6,8,8,9,9,10,10,11,11,12,12,13,13,14,14],"right_children":[2,4,6,8,10,12,14,-1,16,18,20,22,24,26,28,-1,-1,-1,-1,-1,-1,-1,-1,-1,-1,-1,-1,-1,-1],"split_conditions":[2.5E0,1.5E0,1E1,9E-1,5.9201683E1,5.79563E1,1E0,-6.0045816E-2,-1.1501712E2,1.8E0,1.7E0,-1.106488E2,5.965815E1,1.6E1,-1.1153812E2,-5.8015276E-2,-5.3660434E-2,-3.3848535E-2,-5.2822053E-2,2.5388286E-2,-3.0280892E-2,-4.250071E-2,-1.0818956E-2,-2.0054517E-2,1.3513434E-2,1.6300423E-2,-2.1454528E-2,-5.3954154E-2,1.8737864E-2],"split_indices":[3,3,3,3,0,0,5,0,1,3,3,1,0,3,1,0,0,0,0,0,0,0,0,0,0,0,0,0,0],"split_type":[0,0,0,0,0,0,0,0,0,0,0,0,0,0,0,0,0,0,0,0,0,0,0,0,0,0,0,0,0],"sum_hessian":[5.3256157E3,4.883799E3,4.418168E2,4.6082993E3,2.7549957E2,3.5408807E2,8.772873E1,3.8473584E3,7.6094104E2,2.4361728E2,3.1882284E1,2.6004523E2,9.404286E1,7.824218E1,9.486548E0,3.9077225E2,3.701688E2,1.5737585E1,2.278797E2,1.9734261E0,2.9908857E1,2.4225122E2,1.7794006E1,8.227987E1,1.1762988E1,5.7974297E1,2.0267887E1,7.2535386E0,2.2330096E0],"tree_param":{"num_deleted":"0","num_feature":"8","num_nodes":"29","size_leaf_vector":"1"}},{"base_weights":[-5.603822E-1,-5.7990617E-1,-1.7100549E-1,-5.902247E-1,-3.789373E-1,-3.2265314E-1,1.08516544E-1,-5.98376E-1,-4.9697253E-1,-4.312733E-1,4.587564E-1,-4.1103247E-1,1.829928E-1,-5.130593E-3,5.238009E-1,-5.9942752E-2,-4.9346045E-2,-5.4838307E-2,-3.7539996E-2,-5.0314166E-2,-2.2768052E-2,-4.3132477E-2,6.582283E-2,-4.2962935E-2,-6.1806086E-3,-1.4742478E-2,4.416041E-2,-1.8079568E-2,3.5235193E-2,1.8004822E-2,7.65715E-2],"categories":[],"categories_nodes":[],"categories_segments":[],"categories_sizes":[],"default_left":[0,0,0,0,0,0,0,0,0,0,0,0,0,0,0,0,0,0,0,0,0,0,0,0,0,0,0,0,0,0,0],"id":14,"left_children":[1,3,5,7,9,11,13,15,17,19,21,23,25,27,29,-1,-1,-1,-1,-1,-1,-1,-1,-1,-1,-1,-1,-1,-1,-1,-1],"loss_changes":[4.039917E1,1.0294922E1,1.0877147E1,3.3687744E0,1.118074E1,7.4966316E0,4.2837567E0,1.928711E-1,2.254097E0,3.3429298E0,2.9853427E0,8.9352226E-1,2.23551E0,4.5982285E0,1.483685E0,0E0,0E0,0E0,0E0,0E0,0E0,0E0,0E0,0E0,0E0,0E0,0E0,0E0,0E0,0E0,0E0],"parents":[2147483647,0,0,1,1,2,2,3,3,4,4,5,5,6,6,7,7,8,8,9,9,10,10,11,11,12,12,13,13,14,14],"right_children":[2,4,6,8,10,12,14,16,18,20,22,24,26,28,30,-1,-1,-1,-1,-1,-1,-1,-1,-1,-1,-1,-1,-1,-1,-1,-1],"split_conditions":[4.5E0,5.8730934E1,5.7200115E1,1.5E0,-1.1080403E2,1.5E1,5.9265568E1,-1.1058701E2,5.7072918E1,1.7E0,2E-1,5.703132E1,1E0,-1.1443528E2,-1.1745645E2,-5.9942752E-2,-4.9346045E-2,-5.4838307E-2,-3.7539996E-2,-5.0314166E-2,-2.2768052E-2,-4.3132477E-2,6.582283E-2,-4.2962935E-2,-6.1806086E-3,-1.4742478E-2,4.416041E-2,-1.8079568E-2,3.5235193E-2,1.8004822E-2,7.65715E-2],"split_indices":[3,0,0,3,1,3,0,1,0,3,3,0,4,1,1,0,0,0,0,0,0,0,0,0,0,0,0,0,0,0,0],"split_type":[0,0,0,0,0,0,0,0,0,0,0,0,0,0,0,0,0,0,0,0,0,0,0,0,0,0,0,0,0,0,0],"sum_hessian":[5.3261973E3,5.0714194E3,2.5477788E2,4.8219062E3,2.495134E2,1.6506934E2,8.970853E1,4.429319E3,3.925871E2,2.3529802E2,1.4215383E1,1.4066953E2,2.4399813E1,7.120904E1,1.849949E1,4.380698E3,4.8620754E1,2.7344293E2,1.19144165E2,1.7282085E2,6.247717E1,2.3897104E0,1.1825673E1,1.3333879E2,7.3307343E0,1.0901424E1,1.3498388E1,4.8078007E1,2.3131033E1,8.3618355E0,1.0137656E1],"tree_param":{"num_deleted":"0","num_feature":"8","num_nodes":"31","size_leaf_vector":"1"}},{"base_weights":[9.389774E-1,1.1457324E0,2.1926811E-1,9.691072E-1,1.267503E0,5.655237E-1,-2.390874E-1,1.0727503E0,6.5287286E-1,1.3509666E0,1.022865E0,6.605487E-1,2.7212426E-1,-8.768643E-2,-3.4281576E-1,1.1494642E-1,9.2642166E-2,4.7724705E-2,9.635239E-2,1.2733859E-1,1.4025293E-1,1.0879131E-1,3.795496E-2,4.759166E-2,8.140941E-2,6.7779087E-3,3.5156526E-2,1.3612049E-3,-2.6208827E-2,-2.3183225E-2,-4.359996E-2],"categories":[],"categories_nodes":[],"categories_segments":[],"categories_sizes":[],"default_left":[0,0,0,0,0,0,0,0,0,0,0,0,0,0,0,0,0,0,0,0,0,0,0,0,0,0,0,0,0,0,0],"id":15,"left_children":[1,3,5,7,9,11,13,15,17,19,21,23,25,27,29,-1,-1,-1,-1,-1,-1,-1,-1,-1,-1,-1,-1,-1,-1,-1,-1],"loss_changes":[1.1058911E3,1.229668E2,2.6361536E2,7.667261E1,6.834082E1,2.6195648E1,1.120079E1,1.8876099E1,3.1471664E1,8.386719E0,3.610913E1,1.98508E1,3.7607841E0,5.1639276E0,4.2842445E0,0E0,0E0,0E0,0E0,0E0,0E0,0E0,0E0,0E0,0E0,0E0,0E0,0E0,0E0,0E0,0E0],"parents":[2147483647,0,0,1,1,2,2,3,3,4,4,5,5,6,6,7,7,8,8,9,9,10,10,11,11,12,12,13,13,14,14],"right_children":[2,4,6,8,10,12,14,16,18,20,22,24,26,28,30,-1,-1,-1,-1,-1,-1,-1,-1,-1,-1,-1,-1,-1,-1,-1,-1],"split_conditions":[1E0,1E0,1.2E0,1E-1,5.609215E1,5.765385E1,2.5E0,1E0,1E0,1E0,5.8806984E1,1E0,-1.1794765E2,5.71073E1,5.6375336E1,1.1494642E-1,9.2642166E-2,4.7724705E-2,9.635239E-2,1.2733859E-1,1.4025293E-1,1.0879131E-1,3.795496E-2,4.759166E-2,8.140941E-2,6.7779087E-3,3.5156526E-2,1.3612049E-3,-2.6208827E-2,-2.3183225E-2,-4.359996E-2],"split_indices":[3,4,3,3,0,0,3,5,7,2,0,7,1,0,0,0,0,0,0,0,0,0,0,0,0,0,0,0,0,0,0],"split_type":[0,0,0,0,0,0,0,0,0,0,0,0,0,0,0,0,0,0,0,0,0,0,0,0,0,0,0,0,0,0,0],"sum_hessian":[7.432577E3,5.773422E3,1.6591555E3,2.3596985E3,3.4137231E3,9.4502295E2,7.1413257E2,1.7754258E3,5.842727E2,2.5419573E3,8.717659E2,7.128852E2,2.3213776E2,2.9109628E2,4.2303625E2,1.1602838E3,6.15142E2,3.7487454E2,2.0939818E2,1.0251792E3,1.5167781E3,7.910854E2,8.068053E1,3.2553824E2,3.8734692E2,6.550167E1,1.6663608E2,1.847242E2,1.063721E2,1.946695E2,2.2836676E2],"tree_param":{"num_deleted":"0","num_feature":"8","num_nodes":"31","size_leaf_vector":"1"}},{"base_weights":[1.4839837E-1,-5.932936E-2,6.129227E-1,9.335972E-2,-4.7368118E-1,6.447578E-1,1.3368997E-1,-5.847054E-2,4.6063152E-1,-3.5705569E-3,-5.6248575E-1,7.504568E-1,5.623823E-1,1.9870608E-1,-1.926776E-1,-1.4898109E-2,2.7829966E-2,6.94437E-2,2.7289107E-2,-7.994557E-3,3.0672474E-2,-5.783478E-2,-3.643417E-3,7.9745255E-2,4.7257602E-2,2.6940469E-2,6.039388E-2,3.21934E-2,3.6297095E-4,9.762651E-3,-4.623718E-2],"categories":[],"categories_nodes":[],"categories_segments":[],"categories_sizes":[],"default_left":[0,0,0,0,0,0,0,0,0,0,0,0,0,0,0,0,0,0,0,0,0,0,0,0,0,0,0,0,0,0,0],"id":16,"left_children":[1,3,5,7,9,11,13,15,17,19,21,23,25,27,29,-1,-1,-1,-1,-1,-1,-1,-1,-1,-1,-1,-1,-1,-1,-1,-1],"loss_changes":[5.788347E2,2.623292E2,2.8192566E1,1.689997E2,4.6609116E1,1.4709351E1,2.5150392E0,6.5417435E1,3.8718964E1,4.2524405E0,7.81485E0,9.524261E0,1.1777069E1,2.3504329E0,1.6029801E0,0E0,0E0,0E0,0E0,0E0,0E0,0E0,0E0,0E0,0E0,0E0,0E0,0E0,0E0,0E0,0E0],"parents":[2147483647,0,0,1,1,2,2,3,3,4,4,5,5,6,6,7,7,8,8,9,9,10,10,11,11,12,12,13,13,14,14],"right_children":[2,4,6,8,10,12,14,16,18,20,22,24,26,28,30,-1,-1,-1,-1,-1,-1,-1,-1,-1,-1,-1,-1,-1,-1,-1,-1],"split_conditions":[1E0,1E0,7E0,1E-1,1E0,1E0,-1.1159872E2,1E0,1E0,1E-1,5.6615932E1,1E0,5.46146E1,5.6896667E1,1E0,-1.4898109E-2,2.7829966E-2,6.94437E-2,2.7289107E-2,-7.994557E-3,3.0672474E-2,-5.783478E-2,-3.643417E-3,7.9745255E-2,4.7257602E-2,2.6940469E-2,6.039388E-2,3.21934E-2,3.6297095E-4,9.762651E-3,-4.623718E-2],"split_indices":[3,2,3,3,4,7,1,5,7,3,0,4,0,0,4,0,0,0,0,0,0,0,0,0,0,0,0,0,0,0,0],"split_type":[0,0,0,0,0,0,0,0,0,0,0,0,0,0,0,0,0,0,0,0,0,0,0,0,0,0,0,0,0,0,0],"sum_hessian":[5.9972466E3,4.1446836E3,1.8525629E3,3.0291963E3,1.1154874E3,1.7368403E3,1.1572253E2,2.1437927E3,8.854037E2,1.774022E2,9.380852E2,7.571736E2,9.796668E2,9.682504E1,1.8897484E1,1.6901141E3,4.5367847E2,3.93123E2,4.922807E2,1.429575E2,3.4444706E1,9.105306E2,2.7554617E1,6.460437E2,1.11129875E2,1.2262581E2,8.5704095E2,5.8941776E1,3.7883266E1,9.408259E0,9.489225E0],"tree_param":{"num_deleted":"0","num_feature":"8","num_nodes":"31","size_leaf_vector":"1"}},{"base_weights":[-4.4054964E-1,-5.274886E-1,6.0360096E-2,-5.5381715E-1,-3.9529583E-1,-9.430026E-2,2.6712924E-1,-5.585251E-1,-3.691926E-1,-3.2202956E-1,-4.4760162E-1,3.0562964E-1,-1.316213E-1,4.534441E-1,2.015577E-1,-5.6617018E-2,-5.130269E-2,-4.931579E-2,-2.9776027E-2,-1.7192962E-2,-4.3701563E-2,-4.518077E-2,5.654898E-2,9.880859E-3,6.277565E-2,-7.1286684E-4,-1.8651495E-2,5.100329E-2,-2.6099665E-2,6.451317E-2,1.7184818E-2],"categories":[],"categories_nodes":[],"categories_segments":[],"categories_sizes":[],"default_left":[0,0,0,0,0,0,0,0,0,0,0,0,0,0,0,0,0,0,0,0,0,0,0,0,0,0,0,0,0,0,0],"id":17,"left_children":[1,3,5,7,9,11,13,15,17,19,21,23,25,27,29,-1,-1,-1,-1,-1,-1,-1,-1,-1,-1,-1,-1,-1,-1,-1,-1],"loss_changes":[2.2622833E2,1.5185791E1,2.4619396E1,2.9997559E0,2.6863937E0,6.6182704E0,3.932352E0,9.5996094E-1,6.914444E-1,5.296421E0,2.0809097E0,2.464158E0,2.7581701E0,3.5671349E0,3.123354E0,0E0,0E0,0E0,0E0,0E0,0E0,0E0,0E0,0E0,0E0,0E0,0E0,0E0,0E0,0E0,0E0],"parents":[2147483647,0,0,1,1,2,2,3,3,4,4,5,5,6,6,7,7,8,8,9,9,10,10,11,11,12,12,13,13,14,14],"right_children":[2,4,6,8,10,12,14,16,18,20,22,24,26,28,30,-1,-1,-1,-1,-1,-1,-1,-1,-1,-1,-1,-1,-1,-1,-1,-1],"split_conditions":[1.5E0,1E0,3.5E0,5.8806984E1,-1.15653755E2,-1.1880827E2,-1.17026985E2,1E0,1E0,1E0,5.9885334E1,2.5E0,-1.1615583E2,5.9579967E1,5.162855E1,-5.6617018E-2,-5.130269E-2,-4.931579E-2,-2.9776027E-2,-1.7192962E-2,-4.3701563E-2,-4.518077E-2,5.654898E-2,9.880859E-3,6.277565E-2,-7.1286684E-4,-1.8651495E-2,5.100329E-2,-2.6099665E-2,6.451317E-2,1.7184818E-2],"split_indices":[3,3,3,0,1,1,1,5,4,7,0,3,1,0,0,0,0,0,0,0,0,0,0,0,0,0,0,0,0,0,0],"split_type":[0,0,0,0,0,0,0,0,0,0,0,0,0,0,0,0,0,0,0,0,0,0,0,0,0,0,0,0,0,0,0],"sum_hessian":[5.1931235E3,4.42505E3,7.680739E2,3.6874404E3,7.3760944E2,4.3971634E2,3.2835757E2,3.5937737E3,9.36668E1,3.102249E2,4.273845E2,3.691784E1,4.027985E2,8.3938805E1,2.4441878E2,3.0669858E3,5.267878E2,3.208386E1,6.1582947E1,1.3564824E2,1.7457669E2,4.261692E2,1.2153157E0,2.3278593E1,1.3639247E1,1.2360532E2,2.7919318E2,7.804333E1,5.8954763E0,1.404262E1,2.3037616E2],"tree_param":{"num_deleted":"0","num_feature":"8","num_nodes":"31","size_leaf_vector":"1"}},{"base_weights":[-5.5154353E-1,-5.7890445E-1,-2.5730675E-1,-5.84948E-1,-4.7731248E-1,-3.372563E-1,-2.2239506E-2,-5.9176277E-2,-5.499989E-1,-5.0644326E-1,-2.5024122E-1,-4.0823793E-1,-1.730021E-1,-4.4755775E-2,6.651849E-1,-5.7116915E-2,-5.2619465E-2,-3.2567274E-2,-5.175544E-2,2.4326276E-2,-2.9104427E-2,-4.3503772E-2,-6.230905E-3,-2.1041395E-2,1.2996613E-2,-1.6968558E-4,-3.4577932E-2,9.2481755E-2,1.0025184E-2],"categories":[],"categories_nodes":[],"categories_segments":[],"categories_sizes":[],"default_left":[0,0,0,0,0,0,0,0,0,0,0,0,0,0,0,0,0,0,0,0,0,0,0,0,0,0,0,0,0],"id":18,"left_children":[1,3,5,7,9,11,13,-1,15,17,19,21,23,25,27,-1,-1,-1,-1,-1,-1,-1,-1,-1,-1,-1,-1,-1,-1],"loss_changes":[4.063159E1,2.565918E0,8.125698E0,7.1520996E-1,1.6302376E0,3.6936378E0,1.7463739E0,0E0,6.588745E-2,3.023224E-1,7.1874356E-1,2.0560799E0,1.151263E0,1.4034802E0,4.3244815E-1,0E0,0E0,0E0,0E0,0E0,0E0,0E0,0E0,0E0,0E0,0E0,0E0,0E0,0E0],"parents":[2147483647,0,0,1,1,2,2,3,3,4,4,5,5,6,6,8,8,9,9,10,10,11,11,12,12,13,13,14,14],"right_children":[2,4,6,8,10,12,14,-1,16,18,20,22,24,26,28,-1,-1,-1,-1,-1,-1,-1,-1,-1,-1,-1,-1,-1,-1],"split_conditions":[2.5E0,1.5E0,7E0,9E-1,5.9201683E1,5.7711334E1,5.97716E1,-5.9176277E-2,-1.1501712E2,1.8E0,1.7E0,-1.106488E2,5.965815E1,1E0,-1.175233E2,-5.7116915E-2,-5.2619465E-2,-3.2567274E-2,-5.175544E-2,2.4326276E-2,-2.9104427E-2,-4.3503772E-2,-6.230905E-3,-2.1041395E-2,1.2996613E-2,-1.6968558E-4,-3.4577932E-2,9.2481755E-2,1.0025184E-2],"split_indices":[3,3,3,3,0,0,0,0,1,3,3,1,0,5,1,0,0,0,0,0,0,0,0,0,0,0,0,0,0],"split_type":[0,0,0,0,0,0,0,0,0,0,0,0,0,0,0,0,0,0,0,0,0,0,0,0,0,0,0,0,0],"sum_hessian":[5.06454E3,4.632774E3,4.317664E2,4.3681606E3,2.64613E2,3.2186206E2,1.0990433E2,3.6420598E3,7.261009E2,2.3343541E2,3.1177595E1,2.2370404E2,9.8158005E1,1.07323875E2,2.5804508E0,3.7214224E2,3.5395862E2,1.5272512E1,2.181629E2,2.0019972E0,2.9175598E1,2.0738031E2,1.6323727E1,8.7641174E1,1.0516828E1,9.477302E1,1.2550858E1,1.3314857E0,1.248965E0],"tree_param":{"num_deleted":"0","num_feature":"8","num_nodes":"29","size_leaf_vector":"1"}},{"base_weights":[-5.5028695E-1,-5.7732993E-1,-2.5794995E-1,-5.849259E-1,-3.682582E-1,-3.9935833E-1,-5.590309E-2,-5.938809E-1,-5.4802406E-1,-4.217517E-1,4.2135328E-1,-4.6266186E-1,2.0916004E-1,-1.1409819E-1,5.604747E-1,-5.9469204E-2,-4.460539E-2,-5.5103328E-2,-9.2776315E-3,-4.759993E-2,-2.172512E-2,-4.2203378E-2,6.93435E-2,-5.385635E-2,-3.7944384E-2,-1.40544E-2,4.930028E-2,-1.9707946E-2,2.353271E-2,3.181743E-2,8.6007126E-2],"categories":[],"categories_nodes":[],"categories_segments":[],"categories_sizes":[],"default_left":[0,0,0,0,0,0,0,0,0,0,0,0,0,0,0,0,0,0,0,0,0,0,0,0,0,0,0,0,0,0,0],"id":19,"left_children":[1,3,5,7,9,11,13,15,17,19,21,23,25,27,29,-1,-1,-1,-1,-1,-1,-1,-1,-1,-1,-1,-1,-1,-1,-1,-1],"loss_changes":[3.9904175E1,7.1481934E0,1.2285969E1,1.1523438E0,7.1576366E0,9.852837E0,6.4678802E0,1.6491699E-1,1.1631165E0,1.6190281E0,2.8133683E0,1.2465897E0,2.5064301E0,4.80052E0,8.5667753E-1,0E0,0E0,0E0,0E0,0E0,0E0,0E0,0E0,0E0,0E0,0E0,0E0,0E0,0E0,0E0,0E0],"parents":[2147483647,0,0,1,1,2,2,3,3,4,4,5,5,6,6,7,7,8,8,9,9,10,10,11,11,12,12,13,13,14,14],"right_children":[2,4,6,8,10,12,14,16,18,20,22,24,26,28,30,-1,-1,-1,-1,-1,-1,-1,-1,-1,-1,-1,-1,-1,-1,-1,-1],"split_conditions":[2.5E0,5.9039867E1,5.703132E1,1E0,-1.1080403E2,1.5E1,-1.1074485E2,-1.1048122E2,-1.10230255E2,1.7E0,2E-1,1E0,1E0,8E0,5.8173717E1,-5.9469204E-2,-4.460539E-2,-5.5103328E-2,-9.2776315E-3,-4.759993E-2,-2.172512E-2,-4.2203378E-2,6.93435E-2,-5.385635E-2,-3.7944384E-2,-1.40544E-2,4.930028E-2,-1.9707946E-2,2.353271E-2,3.181743E-2,8.6007126E-2],"split_indices":[3,0,0,3,1,3,1,1,1,3,3,4,4,3,0,0,0,0,0,0,0,0,0,0,0,0,0,0,0,0,0],"split_type":[0,0,0,0,0,0,0,0,0,0,0,0,0,0,0,0,0,0,0,0,0,0,0,0,0,0,0,0,0,0,0],"sum_hessian":[5.065368E3,4.635573E3,4.2979477E2,4.4713247E3,1.6424823E2,2.5226393E2,1.7753084E2,3.58601E3,8.853149E2,1.542633E2,9.984937E0,2.2871106E2,2.3552872E1,1.6295992E2,1.4570918E1,3.5634333E3,2.2576607E1,8.7929224E2,6.0226393E0,1.20872086E2,3.3391216E1,2.3010654E0,7.6838713E0,1.1675198E2,1.11959076E2,1.0778384E1,1.2774488E1,1.320393E2,3.0920614E1,9.195785E0,5.3751335E0],"tree_param":{"num_deleted":"0","num_feature":"8","num_nodes":"31","size_leaf_vector":"1"}},{"base_weights":[8.377631E-1,9.438706E-1,-2.2895585E-1,1.0128788E0,5.14289E-1,-8.391562E-2,-3.3064434E-1,9.260417E-1,1.2026964E0,5.9867775E-1,2.4920367E-1,1.2337748E-2,-2.5282386E-1,-2.2144555E-1,-4.2403522E-1,9.856051E-2,4.625177E-2,9.918426E-2,1.2338845E-1,4.2542364E-2,7.359463E-2,-2.9829977E-2,2.739565E-2,-1.1350956E-2,1.6629728E-2,-5.890368E-3,-3.6230173E-2,-3.1837832E-2,1.3493599E-3,-3.872972E-2,-5.430619E-2],"categories":[],"categories_nodes":[],"categories_segments":[],"categories_sizes":[],"default_left":[0,0,0,0,0,0,0,0,0,0,0,0,0,0,0,0,0,0,0,0,0,0,0,0,0,0,0,0,0,0,0],"id":20,"left_children":[1,3,5,7,9,11,13,15,17,19,21,23,25,27,29,-1,-1,-1,-1,-1,-1,-1,-1,-1,-1,-1,-1,-1,-1,-1,-1],"loss_changes":[8.769531E2,2.0833545E2,1.0319962E1,9.892529E1,2.17099E1,4.7260427E0,4.1086845E0,1.1463306E2,1.1281738E1,1.7297333E1,3.302682E0,3.6227264E0,2.2183619E0,4.378172E0,7.561989E-1,0E0,0E0,0E0,0E0,0E0,0E0,0E0,0E0,0E0,0E0,0E0,0E0,0E0,0E0,0E0,0E0],"parents":[2147483647,0,0,1,1,2,2,3,3,4,4,5,5,6,6,7,7,8,8,9,9,10,10,11,11,12,12,13,13,14,14],"right_children":[2,4,6,8,10,12,14,16,18,20,22,24,26,28,30,-1,-1,-1,-1,-1,-1,-1,-1,-1,-1,-1,-1,-1,-1,-1,-1],"split_conditions":[1.2E0,1E0,2.5E0,1E0,5.765385E1,5.71073E1,5.6375336E1,2E-1,1E0,5.56415E1,-1.19378235E2,1E0,1E0,5.590345E1,5.8806984E1,9.856051E-2,4.625177E-2,9.918426E-2,1.2338845E-1,4.2542364E-2,7.359463E-2,-2.9829977E-2,2.739565E-2,-1.1350956E-2,1.6629728E-2,-5.890368E-3,-3.6230173E-2,-3.1837832E-2,1.3493599E-3,-3.872972E-2,-5.430619E-2],"split_indices":[3,3,3,2,0,0,0,3,4,0,1,7,4,0,0,0,0,0,0,0,0,0,0,0,0,0,0,0,0,0,0],"split_type":[0,0,0,0,0,0,0,0,0,0,0,0,0,0,0,0,0,0,0,0,0,0,0,0,0,0,0,0,0,0,0],"sum_hessian":[7.74492E3,7.044329E3,7.005908E2,6.068177E3,9.7615247E2,2.8949863E2,4.110922E2,4.167515E3,1.9006616E3,7.39483E2,2.3666948E2,1.8500142E2,1.0449721E2,1.9106152E2,2.2003067E2,3.6919666E3,4.7554865E2,2.4913416E2,1.6515275E3,3.287053E2,4.1077768E2,9.759082E0,2.2691039E2,1.0193883E2,8.306259E1,3.8261658E1,6.623555E1,1.3500507E2,5.6056458E1,1.713857E2,4.864497E1],"tree_param":{"num_deleted":"0","num_feature":"8","num_nodes":"31","size_leaf_vector":"1"}},{"base_weights":[1.4160721E-1,-5.142519E-2,5.52061E-1,9.212883E-2,-4.6077913E-1,5.9955925E-1,2.9136127E-1,-5.0475575E-2,4.2469156E-1,-1.4753968E-3,-5.5249995E-1,5.0603485E-1,7.4276847E-1,4.098372E-1,5.3720165E-2,-1.3708665E-2,2.6140604E-2,6.252683E-2,2.587418E-2,-7.204494E-3,2.7465722E-2,-5.6909706E-2,-3.0176118E-3,5.6553114E-2,2.5629615E-2,8.003595E-2,3.9894592E-2,4.782088E-2,-4.9308124E-3,1.201545E-2,-2.3487717E-2],"categories":[],"categories_nodes":[],"categories_segments":[],"categories_sizes":[],"default_left":[0,0,0,0,0,0,0,0,0,0,0,0,0,0,0,0,0,0,0,0,0,0,0,0,0,0,0,0,0,0,0],"id":21,"left_children":[1,3,5,7,9,11,13,15,17,19,21,23,25,27,29,-1,-1,-1,-1,-1,-1,-1,-1,-1,-1,-1,-1,-1,-1,-1,-1],"loss_changes":[4.7644458E2,2.4042365E2,2.364264E1,1.4368886E2,4.4748367E1,2.1402649E1,8.37866E0,5.733195E1,3.0103607E1,3.4847991E0,7.6584473E0,1.4517334E1,1.2358337E1,6.2693863E0,1.9534888E0,0E0,0E0,0E0,0E0,0E0,0E0,0E0,0E0,0E0,0E0,0E0,0E0,0E0,0E0,0E0,0E0],"parents":[2147483647,0,0,1,1,2,2,3,3,4,4,5,5,6,6,7,7,8,8,9,9,10,10,11,11,12,12,13,13,14,14],"right_children":[2,4,6,8,10,12,14,16,18,20,22,24,26,28,30,-1,-1,-1,-1,-1,-1,-1,-1,-1,-1,-1,-1,-1,-1,-1,-1],"split_conditions":[1E0,1E0,5E0,1E-1,1E0,1.2E0,5.7171185E1,1E0,1E0,1E-1,5.6615932E1,-1.1167838E2,5.871652E1,1.3E1,5.9265568E1,-1.3708665E-2,2.6140604E-2,6.252683E-2,2.587418E-2,-7.204494E-3,2.7465722E-2,-5.6909706E-2,-3.0176118E-3,5.6553114E-2,2.5629615E-2,8.003595E-2,3.9894592E-2,4.782088E-2,-4.9308124E-3,1.201545E-2,-2.3487717E-2],"split_indices":[3,2,3,3,4,3,0,5,7,3,0,1,0,3,0,0,0,0,0,0,0,0,0,0,0,0,0,0,0,0,0],"split_type":[0,0,0,0,0,0,0,0,0,0,0,0,0,0,0,0,0,0,0,0,0,0,0,0,0,0,0,0,0,0,0],"sum_hessian":[6.012012E3,4.089592E3,1.9224203E3,3.0283662E3,1.0612257E3,1.625045E3,2.9737518E2,2.1201042E3,9.082621E2,1.7681552E2,8.8441016E2,9.8579456E2,6.3925055E2,1.9795845E2,9.941675E1,1.6597452E3,4.60359E2,4.099746E2,4.9828748E2,1.4141423E2,3.5401287E1,8.5708636E2,2.7323841E1,7.951082E2,1.9068636E2,5.463997E2,9.28508E1,1.7226486E2,2.5693594E1,8.12881E1,1.8128643E1],"tree_param":{"num_deleted":"0","num_feature":"8","num_nodes":"31","size_leaf_vector":"1"}},{"base_weights":[-4.2796016E-1,-5.1670074E-1,5.6643188E-2,-5.440034E-1,-3.819098E-1,-8.981414E-2,2.4803492E-1,-5.4885256E-1,-3.591322E-1,-3.930717E-1,-3.9357066E-2,6.655592E-2,-1.7773312E-1,4.1892588E-1,1.8718912E-1,-5.3596266E-2,-5.781526E-2,-4.817177E-2,-2.9036472E-2,-3.452564E-2,-4.70237E-2,2.275687E-2,-2.2225222E-2,-2.5219629E-3,2.7825905E-2,-2.84526E-2,9.69084E-4,2.2925494E-2,6.2035482E-2,5.918348E-2,1.595233E-2],"categories":[],"categories_nodes":[],"categories_segments":[],"categories_sizes":[],"default_left":[0,0,0,0,0,0,0,0,0,0,0,0,0,0,0,0,0,0,0,0,0,0,0,0,0,0,0,0,0,0,0],"id":22,"left_children":[1,3,5,7,9,11,13,15,17,19,21,23,25,27,29,-1,-1,-1,-1,-1,-1,-1,-1,-1,-1,-1,-1,-1,-1,-1,-1],"loss_changes":[2.1416187E2,1.5281128E1,2.1650612E1,2.9382324E0,2.7079391E0,6.0312457E0,3.4023247E0,9.766846E-1,6.380873E-1,2.38237E0,1.2021301E0,3.0827708E0,5.6178513E0,3.1849194E0,2.6893606E0,0E0,0E0,0E0,0E0,0E0,0E0,0E0,0E0,0E0,0E0,0E0,0E0,0E0,0E0,0E0,0E0],"parents":[2147483647,0,0,1,1,2,2,3,3,4,4,5,5,6,6,7,7,8,8,9,9,10,10,11,11,12,12,13,13,14,14],"right_children":[2,4,6,8,10,12,14,16,18,20,22,24,26,28,30,-1,-1,-1,-1,-1,-1,-1,-1,-1,-1,-1,-1,-1,-1,-1,-1],"split_conditions":[1.5E0,1E0,3.5E0,5.8806984E1,5.9579967E1,-1.1621538E2,-1.17026985E2,1E0,1E0,-1.1434217E2,-1.17647385E2,5.8806984E1,2.5E0,-1.1822336E2,5.162855E1,-5.3596266E-2,-5.781526E-2,-4.817177E-2,-2.9036472E-2,-3.452564E-2,-4.70237E-2,2.275687E-2,-2.2225222E-2,-2.5219629E-3,2.7825905E-2,-2.84526E-2,9.69084E-4,2.2925494E-2,6.2035482E-2,5.918348E-2,1.595233E-2],"split_indices":[3,3,3,0,0,1,1,2,4,1,1,0,3,1,0,0,0,0,0,0,0,0,0,0,0,0,0,0,0,0,0],"split_type":[0,0,0,0,0,0,0,0,0,0,0,0,0,0,0,0,0,0,0,0,0,0,0,0,0,0,0,0,0,0,0],"sum_hessian":[4.978369E3,4.2077754E3,7.70594E2,3.4965017E3,7.112736E2,4.368427E2,3.3375128E2,3.4052158E3,9.128597E1,6.886856E2,2.2587996E1,1.5730598E2,2.795367E2,8.6085976E1,2.4766531E2,2.3782517E3,1.0269641E3,3.064784E1,6.063813E1,4.285868E2,2.6009885E2,9.084863E0,1.3503134E1,1.10349266E2,4.695671E1,1.7774231E2,1.0179441E2,4.5438244E1,4.064773E1,1.4544361E1,2.3312096E2],"tree_param":{"num_deleted":"0","num_feature":"8","num_nodes":"31","size_leaf_vector":"1"}},{"base_weights":[-5.419547E-1,-5.7037205E-1,-2.460676E-1,-5.8374E-2,-5.211779E-1,-3.143515E-1,1.6366303E-2,-5.3179264E-1,-3.869923E-1,-3.797656E-1,-1.3671874E-1,6.254662E-2,-3.4936857E-1,-5.4306645E-2,-4.9692728E-2,-4.5892395E-2,-1.7837925E-2,-4.013275E-2,-9.1750845E-3,-2.4649197E-2,-1.3195976E-3,3.5230532E-2,-2.8756815E-3,-5.268062E-2,1.9013202E-2],"categories":[],"categories_nodes":[],"categories_segments":[],"categories_sizes":[],"default_left":[0,0,0,0,0,0,0,0,0,0,0,0,0,0,0,0,0,0,0,0,0,0,0,0,0],"id":23,"left_children":[1,3,5,-1,7,9,11,13,15,17,19,21,23,-1,-1,-1,-1,-1,-1,-1,-1,-1,-1,-1,-1],"loss_changes":[4.0316772E1,2.5821533E0,7.592001E0,0E0,1.1433411E0,3.852394E0,1.5143178E0,7.408142E-2,1.0151701E0,1.4847374E0,1.2441726E0,2.108264E0,1.0630467E0,0E0,0E0,0E0,0E0,0E0,0E0,0E0,0E0,0E0,0E0,0E0,0E0],"parents":[2147483647,0,0,1,1,2,2,4,4,5,5,6,6,7,7,8,8,9,9,10,10,11,11,12,12],"right_children":[2,4,6,-1,8,10,12,14,16,18,20,22,24,-1,-1,-1,-1,-1,-1,-1,-1,-1,-1,-1,-1],"split_conditions":[2.5E0,9E-1,1E1,-5.8374E-2,5.9201683E1,5.79563E1,1E0,1.5E0,-1.1601472E2,-1.106488E2,-1.17026985E2,-1.16888336E2,-1.1153812E2,-5.4306645E-2,-4.9692728E-2,-4.5892395E-2,-1.7837925E-2,-4.013275E-2,-9.1750845E-3,-2.4649197E-2,-1.3195976E-3,3.5230532E-2,-2.8756815E-3,-5.268062E-2,1.9013202E-2],"split_indices":[3,3,3,0,0,0,5,3,1,1,1,1,1,0,0,0,0,0,0,0,0,0,0,0,0],"split_type":[0,0,0,0,0,0,0,0,0,0,0,0,0,0,0,0,0,0,0,0,0,0,0,0,0],"sum_hessian":[4.810546E3,4.3881724E3,4.223734E2,3.4419883E3,9.4618396E2,3.3500824E2,8.736518E1,8.74077E2,7.2106926E1,2.4401178E2,9.0996445E1,7.830661E1,9.058571E0,6.4948816E2,2.245889E2,5.2726486E1,1.9380442E1,2.2665045E2,1.7361336E1,4.7652607E1,4.334384E1,1.8077524E1,6.0229088E1,6.834339E0,2.224232E0],"tree_param":{"num_deleted":"0","num_feature":"8","num_nodes":"25","size_leaf_vector":"1"}},{"base_weights":[-5.406863E-1,-5.6874263E-1,-2.4685043E-1,-5.7662934E-1,-3.5742217E-1,-3.8804033E-1,-4.9693547E-2,-5.859351E-1,-5.386262E-1,-4.1113594E-1,3.9938664E-1,-4.5200786E-1,2.0134829E-1,-1.678888E-1,2.2566009E-1,-5.8678508E-2,-4.332195E-2,-5.4173976E-2,-8.404992E-3,-4.661669E-2,-2.0735651E-2,-4.1345805E-2,6.4749375E-2,-5.2921653E-2,-3.6865953E-2,-1.32076135E-2,4.6241444E-2,-2.7294919E-2,1.4276608E-2,1.1088187E-2,8.0599315E-2],"categories":[],"categories_nodes":[],"categories_segments":[],"categories_sizes":[],"default_left":[0,0,0,0,0,0,0,0,0,0,0,0,0,0,0,0,0,0,0,0,0,0,0,0,0,0,0,0,0,0,0],"id":24,"left_children":[1,3,5,7,9,11,13,15,17,19,21,23,25,27,29,-1,-1,-1,-1,-1,-1,-1,-1,-1,-1,-1,-1,-1,-1,-1,-1],"loss_changes":[3.9534668E1,7.11438E0,1.1706535E1,1.1812744E0,6.695278E0,9.339672E0,5.796053E0,1.8554688E-1,1.1503906E0,1.591156E0,2.5172467E0,1.230957E0,2.211914E0,4.0978804E0,3.4784608E0,0E0,0E0,0E0,0E0,0E0,0E0,0E0,0E0,0E0,0E0,0E0,0E0,0E0,0E0,0E0,0E0],"parents":[2147483647,0,0,1,1,2,2,3,3,4,4,5,5,6,6,7,7,8,8,9,9,10,10,11,11,12,12,13,13,14,14],"right_children":[2,4,6,8,10,12,14,16,18,20,22,24,26,28,30,-1,-1,-1,-1,-1,-1,-1,-1,-1,-1,-1,-1,-1,-1,-1,-1],"split_conditions":[2.5E0,5.9039867E1,5.703132E1,1E0,-1.1080403E2,1.5E1,-1.1443528E2,-1.1048122E2,-1.10230255E2,1.7E0,2E-1,1E0,1E0,5.9265568E1,5.911907E1,-5.8678508E-2,-4.332195E-2,-5.4173976E-2,-8.404992E-3,-4.661669E-2,-2.0735651E-2,-4.1345805E-2,6.4749375E-2,-5.2921653E-2,-3.6865953E-2,-1.32076135E-2,4.6241444E-2,-2.7294919E-2,1.4276608E-2,1.1088187E-2,8.0599315E-2],"split_indices":[3,0,0,3,1,3,1,1,1,3,3,4,4,0,0,0,0,0,0,0,0,0,0,0,0,0,0,0,0,0,0],"split_type":[0,0,0,0,0,0,0,0,0,0,0,0,0,0,0,0,0,0,0,0,0,0,0,0,0,0,0,0,0,0,0],"sum_hessian":[4.811625E3,4.391387E3,4.20238E2,4.231725E3,1.596619E2,2.4431128E2,1.7592671E2,3.3877546E3,8.439705E2,1.4950749E2,1.0154397E1,2.2060199E2,2.370929E1,1.2336339E2,5.2563328E1,3.366178E3,2.1576765E1,8.3803876E2,5.931772E0,1.1670384E2,3.2803654E1,2.218788E0,7.935609E0,1.1174186E2,1.0886013E2,1.0628735E1,1.3080555E1,9.227745E1,3.1085938E1,4.4878357E1,7.6849713E0],"tree_param":{"num_deleted":"0","num_feature":"8","num_nodes":"31","size_leaf_vector":"1"}},{"base_weights":[7.554004E-1,8.470949E-1,-2.180902E-1,9.075994E-1,4.682424E-1,-7.808465E-2,-3.1831235E-1,7.6340026E-1,1.0073738E0,5.510777E-1,2.4680208E-1,1.4362955E-2,-2.429973E-1,-2.1009445E-1,-4.1239265E-1,8.126811E-2,3.49912E-2,1.05380595E-1,7.0618056E-2,4.0223934E-2,7.047292E-2,2.8637487E-3,3.190525E-2,-4.9241707E-3,3.149449E-2,-5.3961254E-3,-3.5174306E-2,-3.0606506E-2,1.7431133E-3,-3.7517782E-2,-5.3450067E-2],"categories":[],"categories_nodes":[],"categories_segments":[],"categories_sizes":[],"default_left":[0,0,0,0,0,0,0,0,0,0,0,0,0,0,0,0,0,0,0,0,0,0,0,0,0,0,0,0,0,0,0],"id":25,"left_children":[1,3,5,7,9,11,13,15,17,19,21,23,25,27,29,-1,-1,-1,-1,-1,-1,-1,-1,-1,-1,-1,-1,-1,-1,-1,-1],"loss_changes":[7.1210547E2,1.6665918E2,9.619801E0,8.964502E1,1.8314636E1,4.395569E0,3.9885216E0,5.216858E1,5.1156494E1,1.643892E1,4.3357124E0,3.562829E0,2.1094809E0,4.1144924E0,7.677536E-1,0E0,0E0,0E0,0E0,0E0,0E0,0E0,0E0,0E0,0E0,0E0,0E0,0E0,0E0,0E0,0E0],"parents":[2147483647,0,0,1,1,2,2,3,3,4,4,5,5,6,6,7,7,8,8,9,9,10,10,11,11,12,12,13,13,14,14],"right_children":[2,4,6,8,10,12,14,16,18,20,22,24,26,28,30,-1,-1,-1,-1,-1,-1,-1,-1,-1,-1,-1,-1,-1,-1,-1,-1],"split_conditions":[1.2E0,1E0,2.5E0,1E0,5.7335835E1,5.71073E1,5.6375336E1,2E-1,5.7171185E1,5.590345E1,-1.1794765E2,-1.11340385E2,1E0,5.590345E1,5.8806984E1,8.126811E-2,3.49912E-2,1.05380595E-1,7.0618056E-2,4.0223934E-2,7.047292E-2,2.8637487E-3,3.190525E-2,-4.9241707E-3,3.149449E-2,-5.3961254E-3,-3.5174306E-2,-3.0606506E-2,1.7431133E-3,-3.7517782E-2,-5.3450067E-2],"split_indices":[3,3,3,4,0,0,0,3,0,0,1,1,4,0,0,0,0,0,0,0,0,0,0,0,0,0,0,0,0,0,0],"split_type":[0,0,0,0,0,0,0,0,0,0,0,0,0,0,0,0,0,0,0,0,0,0,0,0,0,0,0,0,0,0,0],"sum_hessian":[7.9744795E3,7.28813E3,6.863497E2,6.283267E3,1.0048629E3,2.870849E2,3.9926477E2,2.5731155E3,3.7101514E3,7.3021783E2,2.7464508E2,1.8454474E2,1.0254015E2,1.871847E2,2.1208008E2,2.2982388E3,2.748767E2,3.2124236E3,4.9772778E2,3.72756E2,3.5746182E2,6.86745E1,2.0597058E2,1.5300441E2,3.1540329E1,3.799262E1,6.454753E1,1.3141042E2,5.5774277E1,1.6566342E2,4.641666E1],"tree_param":{"num_deleted":"0","num_feature":"8","num_nodes":"31","size_leaf_vector":"1"}},{"base_weights":[1.3592882E-1,-4.326333E-2,5.0015396E-1,9.155887E-2,-4.4770047E-1,5.4221123E-1,2.6611954E-1,-4.212902E-2,3.9302573E-1,3.7644308E-3,-5.428872E-1,4.608026E-1,6.655476E-1,3.7845463E-1,5.8192518E-2,9.792191E-3,-2.1950424E-2,2.2412872E-2,5.5473197E-2,6.6008875E-3,-2.8545706E-2,-5.6038465E-2,-1.6861676E-3,5.136129E-2,2.357257E-2,7.15289E-2,3.632091E-2,4.9909838E-2,1.384044E-2,1.16755115E-2,-2.2497866E-2],"categories":[],"categories_nodes":[],"categories_segments":[],"categories_sizes":[],"default_left":[0,0,0,0,0,0,0,0,0,0,0,0,0,0,0,0,0,0,0,0,0,0,0,0,0,0,0,0,0,0,0],"id":26,"left_children":[1,3,5,7,9,11,13,15,17,19,21,23,25,27,29,-1,-1,-1,-1,-1,-1,-1,-1,-1,-1,-1,-1,-1,-1,-1,-1],"loss_changes":[3.9262192E2,2.1993314E2,1.9380463E1,1.21944E2,4.333661E1,1.6566742E1,7.0818043E0,5.2108776E1,2.526271E1,3.1977696E0,7.655899E0,1.1950424E1,9.755066E0,5.644108E0,1.8149345E0,0E0,0E0,0E0,0E0,0E0,0E0,0E0,0E0,0E0,0E0,0E0,0E0,0E0,0E0,0E0,0E0],"parents":[2147483647,0,0,1,1,2,2,3,3,4,4,5,5,6,6,7,7,8,8,9,9,10,10,11,11,12,12,13,13,14,14],"right_children":[2,4,6,8,10,12,14,16,18,20,22,24,26,28,30,-1,-1,-1,-1,-1,-1,-1,-1,-1,-1,-1,-1,-1,-1,-1,-1],"split_conditions":[1E0,1E0,5E0,1E-1,1E0,1.2E0,5.7072918E1,1E0,2E-1,-1.1225E2,5.6615932E1,-1.1167838E2,5.871652E1,9E0,5.9265568E1,9.792191E-3,-2.1950424E-2,2.2412872E-2,5.5473197E-2,6.6008875E-3,-2.8545706E-2,-5.6038465E-2,-1.6861676E-3,5.136129E-2,2.357257E-2,7.15289E-2,3.632091E-2,4.9909838E-2,1.384044E-2,1.16755115E-2,-2.2497866E-2],"split_indices":[3,2,3,3,4,3,0,4,3,1,0,1,0,3,0,0,0,0,0,0,0,0,0,0,0,0,0,0,0,0,0],"split_type":[0,0,0,0,0,0,0,0,0,0,0,0,0,0,0,0,0,0,0,0,0,0,0,0,0,0,0,0,0,0,0],"sum_hessian":[6.014361E3,4.0317126E3,1.9826482E3,3.0243096E3,1.007403E3,1.6795135E3,3.031347E2,2.0957795E3,9.2852997E2,1.7558322E2,8.318198E2,1.0145756E3,6.649379E2,1.9627477E2,1.0685994E2,1.1713553E3,9.2442426E2,4.5533408E2,4.7319592E2,1.4512262E2,3.0460611E1,8.049782E2,2.6841612E1,8.2072534E2,1.9385027E2,5.698236E2,9.511429E1,1.2990724E2,6.636753E1,8.903443E1,1.7825512E1],"tree_param":{"num_deleted":"0","num_feature":"8","num_nodes":"31","size_leaf_vector":"1"}},{"base_weights":[-4.1556993E-1,-5.0627637E-1,5.46178E-2,-5.345754E-1,-3.693265E-1,-1.5346552E-1,1.7353019E-1,-5.39629E-1,-3.4622255E-1,-2.9573116E-1,-4.229292E-1,4.1311312E-2,-2.7279374E-1,5.522257E-2,2.540916E-1,-5.479865E-2,-4.9039233E-2,-4.705421E-2,-2.77831E-2,-1.414651E-2,-4.1589804E-2,-4.2739347E-2,5.569754E-2,5.8231737E-2,-1.9293987E-4,-2.838106E-3,-3.186299E-2,1.5417031E-2,-2.1507997E-2,1.5506947E-2,3.2946322E-2],"categories":[],"categories_nodes":[],"categories_segments":[],"categories_sizes":[],"default_left":[0,0,0,0,0,0,0,0,0,0,0,0,0,0,0,0,0,0,0,0,0,0,0,0,0,0,0,0,0,0,0],"id":27,"left_children":[1,3,5,7,9,11,13,15,17,19,21,23,25,27,29,-1,-1,-1,-1,-1,-1,-1,-1,-1,-1,-1,-1,-1,-1,-1,-1],"loss_changes":[2.034845E2,1.5301392E1,1.913802E1,2.9656982E0,2.5893707E0,6.5518036E0,4.6749353E0,1.0578003E0,6.287937E-1,5.3781357E0,1.96949E0,2.5223377E0,1.947341E0,5.3976545E0,2.131195E0,0E0,0E0,0E0,0E0,0E0,0E0,0E0,0E0,0E0,0E0,0E0,0E0,0E0,0E0,0E0,0E0],"parents":[2147483647,0,0,1,1,2,2,3,3,4,4,5,5,6,6,7,7,8,8,9,9,10,10,11,11,12,12,13,13,14,14],"right_children":[2,4,6,8,10,12,14,16,18,20,22,24,26,28,30,-1,-1,-1,-1,-1,-1,-1,-1,-1,-1,-1,-1,-1,-1,-1,-1],"split_conditions":[1.5E0,1E0,2.5E0,5.8806984E1,-1.15653755E2,-1.1621538E2,5.61371E1,1E0,1E0,1E0,5.9885334E1,1.7E0,5.4525116E1,5.5799572E1,5E0,-5.479865E-2,-4.9039233E-2,-4.705421E-2,-2.77831E-2,-1.414651E-2,-4.1589804E-2,-4.2739347E-2,5.569754E-2,5.8231737E-2,-1.9293987E-4,-2.838106E-3,-3.186299E-2,1.5417031E-2,-2.1507997E-2,1.5506947E-2,3.2946322E-2],"split_indices":[3,3,3,0,1,1,0,5,4,7,0,3,0,0,3,0,0,0,0,0,0,0,0,0,0,0,0,0,0,0,0],"split_type":[0,0,0,0,0,0,0,0,0,0,0,0,0,0,0,0,0,0,0,0,0,0,0,0,0,0,0,0,0,0,0],"sum_hessian":[4.7694897E3,3.9981152E3,7.713744E2,3.3110269E3,6.870884E2,2.8040558E2,4.9096884E2,3.2226963E3,8.8330536E1,2.9229315E2,3.9479523E2,1.0677419E2,1.7363138E2,1.9957318E2,2.9139566E2,2.7463894E3,4.76307E2,2.926096E1,5.9069572E1,1.2894072E2,1.6335242E2,3.9356604E2,1.2291856E0,6.979783E0,9.979441E1,2.767561E1,1.4595578E2,1.464082E2,5.3164978E1,1.2726031E2,1.6413535E2],"tree_param":{"num_deleted":"0","num_feature":"8","num_nodes":"31","size_leaf_vector":"1"}},{"base_weights":[-5.327903E-1,-5.62384E-1,-2.346766E-1,-5.763194E-1,-5.117264E-1,-3.1272158E-1,-1.6067319E-2,-5.797697E-2,-5.469801E-1,-5.226587E-1,-3.7563407E-1,-3.8473088E-1,-1.5115401E-1,-3.7719376E-2,6.168553E-1,-5.5341687E-2,-4.287681E-2,-5.343459E-2,-4.8674032E-2,-4.7942754E-2,-2.2333935E-2,-4.123039E-2,-4.552314E-3,-1.8849546E-2,1.4255546E-2,2.1341168E-4,-3.2738935E-2,8.529812E-2,9.2292065E-3],"categories":[],"categories_nodes":[],"categories_segments":[],"categories_sizes":[],"default_left":[0,0,0,0,0,0,0,0,0,0,0,0,0,0,0,0,0,0,0,0,0,0,0,0,0,0,0,0,0],"id":28,"left_children":[1,3,5,7,9,11,13,-1,15,17,19,21,23,25,27,-1,-1,-1,-1,-1,-1,-1,-1,-1,-1,-1,-1,-1,-1],"loss_changes":[4.0146484E1,2.6364746E0,7.058481E0,1.171875E-2,1.149826E0,3.490717E0,1.5303392E0,0E0,3.62854E-2,9.0408325E-2,1.0125914E0,1.9486084E0,1.0763078E0,1.2391455E0,3.7898767E-1,0E0,0E0,0E0,0E0,0E0,0E0,0E0,0E0,0E0,0E0,0E0,0E0,0E0,0E0],"parents":[2147483647,0,0,1,1,2,2,3,3,4,4,5,5,6,6,8,8,9,9,10,10,11,11,12,12,13,13,14,14],"right_children":[2,4,6,8,10,12,14,-1,16,18,20,22,24,26,28,-1,-1,-1,-1,-1,-1,-1,-1,-1,-1,-1,-1,-1,-1],"split_conditions":[2.5E0,9E-1,7E0,5.8050083E1,5.9201683E1,5.7711334E1,5.97716E1,-5.797697E-2,-1.1422985E2,1.5E0,1.5E0,-1.106488E2,5.965815E1,1E0,-1.175233E2,-5.5341687E-2,-4.287681E-2,-5.343459E-2,-4.8674032E-2,-4.7942754E-2,-2.2333935E-2,-4.123039E-2,-4.552314E-3,-1.8849546E-2,1.4255546E-2,2.1341168E-4,-3.2738935E-2,8.529812E-2,9.2292065E-3],"split_indices":[3,3,3,0,0,0,0,0,1,3,3,1,0,5,1,0,0,0,0,0,0,0,0,0,0,0,0,0,0],"split_type":[0,0,0,0,0,0,0,0,0,0,0,0,0,0,0,0,0,0,0,0,0,0,0,0,0,0,0,0,0],"sum_hessian":[4.5645186E3,4.151512E3,4.1300607E2,3.2477185E3,9.037937E2,3.0403354E2,1.0897252E2,2.8891936E3,3.5852484E2,8.33961E2,6.983272E1,2.0934778E2,9.468577E1,1.0627722E2,2.695301E0,3.3651935E2,2.200547E1,6.1875366E2,2.1520735E2,4.0251846E1,2.9580872E1,1.9341061E2,1.5937162E1,8.432335E1,1.0362421E1,9.429633E1,1.1980885E1,1.4269141E0,1.2683871E0],"tree_param":{"num_deleted":"0","num_feature":"8","num_nodes":"29","size_leaf_vector":"1"}},{"base_weights":[-5.315346E-1,-5.6070197E-1,-2.3580353E-1,-5.6893116E-1,-3.4562647E-1,-3.7613878E-1,-4.5107953E-2,-5.7863E-1,-5.297376E-1,-3.9955276E-1,3.778171E-1,-4.4064674E-1,1.8990879E-1,-1.00414656E-1,5.0836307E-1,-5.7952292E-2,-4.2073585E-2,-5.329561E-2,-7.7761672E-3,-4.5506712E-2,-1.9923761E-2,-4.0370833E-2,6.0249478E-2,-5.1994085E-2,-3.56162E-2,3.0407203E-2,-4.6685703E-2,-2.8504917E-2,4.5854882E-3,2.679542E-2,7.401108E-2],"categories":[],"categories_nodes":[],"categories_segments":[],"categories_sizes":[],"default_left":[0,0,0,0,0,0,0,0,0,0,0,0,0,0,0,0,0,0,0,0,0,0,0,0,0,0,0,0,0,0,0],"id":29,"left_children":[1,3,5,7,9,11,13,15,17,19,21,23,25,27,29,-1,-1,-1,-1,-1,-1,-1,-1,-1,-1,-1,-1,-1,-1,-1,-1],"loss_changes":[3.925952E1,7.1591797E0,1.10007515E1,1.2147217E0,6.225546E0,8.7388E0,5.428458E0,2.0690918E-1,1.1304321E0,1.5261497E0,2.230134E0,1.2422943E0,2.0125203E0,4.348862E0,7.0004606E-1,0E0,0E0,0E0,0E0,0E0,0E0,0E0,0E0,0E0,0E0,0E0,0E0,0E0,0E0,0E0,0E0],"parents":[2147483647,0,0,1,1,2,2,3,3,4,4,5,5,6,6,7,7,8,8,9,9,10,10,11,11,12,12,13,13,14,14],"right_children":[2,4,6,8,10,12,14,16,18,20,22,24,26,28,30,-1,-1,-1,-1,-1,-1,-1,-1,-1,-1,-1,-1,-1,-1,-1,-1],"split_conditions":[2.5E0,5.9039867E1,5.703132E1,1E0,-1.1080403E2,1.5E1,-1.1074485E2,-1.1048122E2,-1.10230255E2,1.7E0,2E-1,1E0,1E0,4.5E0,-1.103692E2,-5.7952292E-2,-4.2073585E-2,-5.329561E-2,-7.7761672E-3,-4.5506712E-2,-1.9923761E-2,-4.0370833E-2,6.0249478E-2,-5.1994085E-2,-3.56162E-2,3.0407203E-2,-4.6685703E-2,-2.8504917E-2,4.5854882E-3,2.679542E-2,7.401108E-2],"split_indices":[3,0,0,3,1,3,1,1,1,3,3,4,5,3,1,0,0,0,0,0,0,0,0,0,0,0,0,0,0,0,0],"split_type":[0,0,0,0,0,0,0,0,0,0,0,0,0,0,0,0,0,0,0,0,0,0,0,0,0,0,0,0,0,0,0],"sum_hessian":[4.5657876E3,4.1550845E3,4.1070306E2,4.0003765E3,1.5470819E2,2.3603181E2,1.7467123E2,3.195787E3,8.0458923E2,1.443927E2,1.0315488E1,2.1208383E2,2.394798E1,1.5954677E2,1.5124458E1,3.1751602E3,2.0626886E1,7.987224E2,5.8668165E0,1.1206408E2,3.2328625E1,2.1254451E0,8.1900425E0,1.06743904E2,1.05339935E2,2.0859129E1,3.0888515E0,7.010507E1,8.94417E1,8.48185E0,6.6426086E0],"tree_param":{"num_deleted":"0","num_feature":"8","num_nodes":"31","size_leaf_vector":"1"}},{"base_weights":[6.8679774E-1,7.6743853E-1,-2.0743687E-1,8.2172E-1,4.2813125E-1,-7.213036E-2,-3.0626795E-1,7.469745E-1,9.884732E-1,5.0288934E-1,2.2602825E-1,1.6982492E-2,-2.3352149E-1,-1.9991198E-1,-4.0053383E-1,8.2678504E-2,5.1618364E-2,8.0345124E-2,1.016677E-1,3.475761E-2,6.4109586E-2,2.3939814E-3,2.9196754E-2,-1.0350821E-2,1.6160099E-2,-4.3696154E-2,-1.3156264E-2,-2.9434292E-2,1.8626519E-3,-3.6237627E-2,-5.2682158E-2],"categories":[],"categories_nodes":[],"categories_segments":[],"categories_sizes":[],"default_left":[0,0,0,0,0,0,0,0,0,0,0,0,0,0,0,0,0,0,0,0,0,0,0,0,0,0,0,0,0,0,0],"id":30,"left_children":[1,3,5,7,9,11,13,15,17,19,21,23,25,27,29,-1,-1,-1,-1,-1,-1,-1,-1,-1,-1,-1,-1,-1,-1,-1,-1],"loss_changes":[5.866914E2,1.370664E2,8.985556E0,7.941748E1,1.5464645E1,4.1120076E0,3.819519E0,8.144165E1,9.553711E0,1.59157715E1,3.727191E0,3.239663E0,2.0515852E0,3.8182435E0,7.979317E-1,0E0,0E0,0E0,0E0,0E0,0E0,0E0,0E0,0E0,0E0,0E0,0E0,0E0,0E0,0E0,0E0],"parents":[2147483647,0,0,1,1,2,2,3,3,4,4,5,5,6,6,7,7,8,8,9,9,10,10,11,11,12,12,13,13,14,14],"right_children":[2,4,6,8,10,12,14,16,18,20,22,24,26,28,30,-1,-1,-1,-1,-1,-1,-1,-1,-1,-1,-1,-1,-1,-1,-1,-1],"split_conditions":[1.2E0,1E0,2.5E0,1E0,5.7335835E1,5.71073E1,5.6375336E1,1E-1,1E0,1E0,-1.1794765E2,1E0,5.8050083E1,5.590345E1,5.8806984E1,8.2678504E-2,5.1618364E-2,8.0345124E-2,1.016677E-1,3.475761E-2,6.4109586E-2,2.3939814E-3,2.9196754E-2,-1.0350821E-2,1.6160099E-2,-4.3696154E-2,-1.3156264E-2,-2.9434292E-2,1.8626519E-3,-3.6237627E-2,-5.2682158E-2],"split_indices":[3,3,3,2,0,0,0,3,4,7,1,7,0,0,0,0,0,0,0,0,0,0,0,0,0,0,0,0,0,0,0],"split_type":[0,0,0,0,0,0,0,0,0,0,0,0,0,0,0,0,0,0,0,0,0,0,0,0,0,0,0,0,0,0,0],"sum_hessian":[8.1326504E3,7.460055E3,6.725953E2,6.4299824E3,1.0300728E3,2.8463724E2,3.87958E2,4.4436436E3,1.9863389E3,7.508459E2,2.7922687E2,1.839585E2,1.0067875E2,1.8375558E2,2.0420244E2,3.2999097E3,1.1437339E3,2.666377E2,1.7197012E3,3.5519778E2,3.9564807E2,6.902979E1,2.1019707E2,1.00505424E2,8.345307E1,3.251514E1,6.8163605E1,1.280696E2,5.568599E1,1.597913E2,4.4411133E1],"tree_param":{"num_deleted":"0","num_feature":"8","num_nodes":"31","size_leaf_vector":"1"}},{"base_weights":[1.3118976E-1,-3.4838915E-2,4.5519486E-1,9.238267E-2,-4.3526614E-1,4.7506377E-1,5.4388072E-2,-3.3421844E-2,3.680709E-1,6.758402E-3,-5.3395665E-1,5.5574304E-1,4.1167006E-1,1.3865402E-1,-3.1814006E-1,-1.15572E-2,2.5001636E-2,5.404047E-2,2.2265814E-2,-3.9800815E-3,3.81621E-2,-5.5237144E-2,-8.7534095E-4,5.9626263E-2,3.15086E-2,1.6361073E-2,4.4631265E-2,9.38671E-3,7.0791416E-2,2.791225E-2,-4.531054E-2],"categories":[],"categories_nodes":[],"categories_segments":[],"categories_sizes":[],"default_left":[0,0,0,0,0,0,0,0,0,0,0,0,0,0,0,0,0,0,0,0,0,0,0,0,0,0,0,0,0,0,0],"id":31,"left_children":[1,3,5,7,9,11,13,15,17,19,21,23,25,27,29,-1,-1,-1,-1,-1,-1,-1,-1,-1,-1,-1,-1,-1,-1,-1,-1],"loss_changes":[3.23225E2,2.0246349E2,1.6185883E1,1.0462584E2,4.1805206E1,9.690674E0,3.0978389E0,4.827619E1,2.35663E1,3.0849266E0,7.5713654E0,8.1058655E0,9.293198E0,1.9739517E0,1.597506E0,0E0,0E0,0E0,0E0,0E0,0E0,0E0,0E0,0E0,0E0,0E0,0E0,0E0,0E0,0E0,0E0],"parents":[2147483647,0,0,1,1,2,2,3,3,4,4,5,5,6,6,7,7,8,8,9,9,10,10,11,11,12,12,13,13,14,14],"right_children":[2,4,6,8,10,12,14,16,18,20,22,24,26,28,30,-1,-1,-1,-1,-1,-1,-1,-1,-1,-1,-1,-1,-1,-1,-1,-1],"split_conditions":[1E0,1E0,9E0,1E-1,1E0,1E0,5.7864433E1,1E0,1E0,5.7335835E1,5.6615932E1,1E0,5.46146E1,5.7394833E1,-1.1868271E2,-1.15572E-2,2.5001636E-2,5.404047E-2,2.2265814E-2,-3.9800815E-3,3.81621E-2,-5.5237144E-2,-8.7534095E-4,5.9626263E-2,3.15086E-2,1.6361073E-2,4.4631265E-2,9.38671E-3,7.0791416E-2,2.791225E-2,-4.531054E-2],"split_indices":[3,2,3,3,4,7,0,5,7,0,0,4,0,0,1,0,0,0,0,0,0,0,0,0,0,0,0,0,0,0,0],"split_type":[0,0,0,0,0,0,0,0,0,0,0,0,0,0,0,0,0,0,0,0,0,0,0,0,0,0,0,0,0,0,0],"sum_hessian":[6.0072593E3,3.972526E3,2.0347335E3,3.0152925E3,9.572333E2,1.9384546E3,9.627899E1,2.0710784E3,9.4421423E2,1.7488286E2,7.8235046E2,8.4952435E2,1.0889302E3,7.903016E1,1.7248838E1,1.6061523E3,4.64926E2,4.3086484E2,5.1334937E2,1.5635664E2,1.8526205E1,7.557987E2,2.6551725E1,7.2583704E2,1.2368732E2,1.3413991E2,9.5479034E2,7.434584E1,4.684317E0,2.9824567E0,1.4266381E1],"tree_param":{"num_deleted":"0","num_feature":"8","num_nodes":"31","size_leaf_vector":"1"}},{"base_weights":[-4.0334085E-1,-4.9611762E-1,5.2899927E-2,-5.254937E-1,-3.569788E-1,-1.4451857E-1,1.6305242E-1,-5.307797E-1,-3.3286178E-1,-3.6857203E-1,-1.4518314E-2,4.1491535E-2,-2.6112494E-1,5.2124005E-2,2.3775831E-1,-5.394428E-2,-4.8026185E-2,-4.5960627E-2,-2.6441162E-2,-3.219402E-2,-4.5300376E-2,2.4396487E-2,-1.9837035E-2,5.4056752E-2,2.6551434E-5,-2.2655986E-3,-3.0669967E-2,5.2823354E-2,6.1561266E-5,2.5583481E-2,-9.731978E-3],"categories":[],"categories_nodes":[],"categories_segments":[],"categories_sizes":[],"default_left":[0,0,0,0,0,0,0,0,0,0,0,0,0,0,0,0,0,0,0,0,0,0,0,0,0,0,0,0,0,0,0],"id":32,"left_children":[1,3,5,7,9,11,13,15,17,19,21,23,25,27,29,-1,-1,-1,-1,-1,-1,-1,-1,-1,-1,-1,-1,-1,-1,-1,-1],"loss_changes":[1.9341937E2,1.5331543E1,1.683291E1,3.0134888E0,2.6348495E0,6.026826E0,4.1030817E0,1.074646E0,6.2766457E-1,2.3865204E0,1.132674E0,2.216565E0,1.8474274E0,4.9322977E0,1.8206902E0,0E0,0E0,0E0,0E0,0E0,0E0,0E0,0E0,0E0,0E0,0E0,0E0,0E0,0E0,0E0,0E0],"parents":[2147483647,0,0,1,1,2,2,3,3,4,4,5,5,6,6,7,7,8,8,9,9,10,10,11,11,12,12,13,13,14,14],"right_children":[2,4,6,8,10,12,14,16,18,20,22,24,26,28,30,-1,-1,-1,-1,-1,-1,-1,-1,-1,-1,-1,-1,-1,-1,-1,-1],"split_conditions":[1.5E0,1E0,2.5E0,5.8806984E1,5.9579967E1,-1.1621538E2,5.61371E1,1E0,1E0,-1.13984E2,-1.17647385E2,1.7E0,5.4525116E1,5.1732952E1,5.965815E1,-5.394428E-2,-4.8026185E-2,-4.5960627E-2,-2.6441162E-2,-3.219402E-2,-4.5300376E-2,2.4396487E-2,-1.9837035E-2,5.4056752E-2,2.6551434E-5,-2.2655986E-3,-3.0669967E-2,5.2823354E-2,6.1561266E-5,2.5583481E-2,-9.731978E-3],"split_indices":[3,3,3,0,0,1,0,5,4,1,1,3,0,0,0,0,0,0,0,0,0,0,0,0,0,0,0,0,0,0,0],"split_type":[0,0,0,0,0,0,0,0,0,0,0,0,0,0,0,0,0,0,0,0,0,0,0,0,0,0,0,0,0,0,0],"sum_hessian":[4.5678584E3,3.7958777E3,7.7198065E2,3.1318745E3,6.640032E2,2.7636298E2,4.9561768E2,3.0465193E3,8.535518E1,6.4218713E2,2.1816032E1,1.06738396E2,1.6962457E2,2.0013751E2,2.9548016E2,2.5923E3,4.5421927E2,2.7928112E1,5.7427067E1,4.1680035E2,2.2538681E2,8.931708E0,1.2884325E1,7.220143E0,9.951826E1,2.7456438E1,1.4216814E2,1.8634766E1,1.8150275E2,2.8058017E2,1.4900005E1],"tree_param":{"num_deleted":"0","num_feature":"8","num_nodes":"31","size_leaf_vector":"1"}},{"base_weights":[-5.240131E-1,-5.5488783E-1,-2.2351839E-1,-5.694645E-1,-5.0260216E-1,-2.8991544E-1,1.8691476E-2,-5.7006378E-2,-4.24728E-1,-5.138284E-1,-3.6535802E-1,-3.5525396E-1,-1.19247176E-1,9.196152E-2,-1.936643E-1,-4.7436602E-2,9.622626E-4,-5.2597314E-2,-4.76744E-2,-4.4045985E-2,-1.52311195E-2,-3.773996E-2,-7.1597816E-3,-2.2967225E-2,3.3573082E-4,4.4561226E-2,-3.3120792E-3,-4.733485E-2,8.171373E-3],"categories":[],"categories_nodes":[],"categories_segments":[],"categories_sizes":[],"default_left":[0,0,0,0,0,0,0,0,0,0,0,0,0,0,0,0,0,0,0,0,0,0,0,0,0,0,0,0,0],"id":33,"left_children":[1,3,5,7,9,11,13,-1,15,17,19,21,23,25,27,-1,-1,-1,-1,-1,-1,-1,-1,-1,-1,-1,-1,-1,-1],"loss_changes":[4.0033325E1,2.704712E0,6.518032E0,2.34375E-2,1.1435852E0,3.502554E0,1.3880795E0,0E0,3.612926E-1,1.0786438E-1,1.0336637E0,1.4138851E0,1.212674E0,2.9411135E0,1.8034464E0,0E0,0E0,0E0,0E0,0E0,0E0,0E0,0E0,0E0,0E0,0E0,0E0,0E0,0E0],"parents":[2147483647,0,0,1,1,2,2,3,3,4,4,5,5,6,6,8,8,9,9,10,10,11,11,12,12,13,13,14,14],"right_children":[2,4,6,8,10,12,14,-1,16,18,20,22,24,26,28,-1,-1,-1,-1,-1,-1,-1,-1,-1,-1,-1,-1,-1,-1],"split_conditions":[2.5E0,9E-1,1E1,5.965815E1,5.9201683E1,5.79563E1,1.6E1,-5.7006378E-2,-1.11419235E2,1.5E0,-1.1601472E2,-1.106488E2,-1.17026985E2,-1.16888336E2,-1.149812E2,-4.7436602E-2,9.622626E-4,-5.2597314E-2,-4.76744E-2,-4.4045985E-2,-1.52311195E-2,-3.773996E-2,-7.1597816E-3,-2.2967225E-2,3.3573082E-4,4.4561226E-2,-3.3120792E-3,-4.733485E-2,8.171373E-3],"split_indices":[3,3,3,0,0,0,3,0,1,3,1,1,1,1,1,0,0,0,0,0,0,0,0,0,0,0,0,0,0],"split_type":[0,0,0,0,0,0,0,0,0,0,0,0,0,0,0,0,0,0,0,0,0,0,0,0,0,0,0,0,0],"sum_hessian":[4.3273765E3,3.9234138E3,4.0396252E2,3.060335E3,8.63079E2,3.1689505E2,8.706749E1,3.0447893E3,1.5545588E1,7.9528296E2,6.779602E1,2.2838048E2,8.851458E1,6.515405E1,2.191344E1,1.386855E1,1.6770374E0,5.891573E2,2.0612572E2,4.9336735E1,1.8459286E1,2.1153503E2,1.684544E1,4.611096E1,4.2403618E1,1.6353767E1,4.880028E1,1.0515055E1,1.1398386E1],"tree_param":{"num_deleted":"0","num_feature":"8","num_nodes":"29","size_leaf_vector":"1"}},{"base_weights":[-5.2276725E-1,-5.5314684E-1,-2.250041E-1,-5.6174785E-1,-3.3424798E-1,-3.5799125E-1,-3.0468011E-2,-5.6365645E-1,-3.591109E-1,-3.8832626E-1,3.5838065E-1,-4.1819957E-1,1.460179E-1,-1.4585884E-1,2.5008535E-1,-5.7284117E-2,-5.2628495E-2,-5.0860714E-2,8.635294E-2,-4.4421323E-2,-1.9214293E-2,-3.9426133E-2,5.6286514E-2,-5.0275255E-2,-3.346361E-2,2.4439609E-2,-4.6033036E-2,5.7034787E-2,-1.9178312E-2,1.1707648E-2,5.9000522E-2],"categories":[],"categories_nodes":[],"categories_segments":[],"categories_sizes":[],"default_left":[0,0,0,0,0,0,0,0,0,0,0,0,0,0,0,0,0,0,0,0,0,0,0,0,0,0,0,0,0,0,0],"id":34,"left_children":[1,3,5,7,9,11,13,15,17,19,21,23,25,27,29,-1,-1,-1,-1,-1,-1,-1,-1,-1,-1,-1,-1,-1,-1,-1,-1],"loss_changes":[3.9042236E1,7.20813E0,1.0403051E1,1.2589111E0,5.794401E0,7.3136063E0,5.3631363E0,9.82666E-1,7.3866744E0,1.45541E0,1.9848173E0,1.342041E0,1.6780562E0,3.9648495E0,2.115596E0,0E0,0E0,0E0,0E0,0E0,0E0,0E0,0E0,0E0,0E0,0E0,0E0,0E0,0E0,0E0,0E0],"parents":[2147483647,0,0,1,1,2,2,3,3,4,4,5,5,6,6,7,7,8,8,9,9,10,10,11,11,12,12,13,13,14,14],"right_children":[2,4,6,8,10,12,14,16,18,20,22,24,26,28,30,-1,-1,-1,-1,-1,-1,-1,-1,-1,-1,-1,-1,-1,-1,-1,-1],"split_conditions":[2.5E0,5.9039867E1,5.71388E1,-1.1048122E2,-1.1080403E2,1.5E1,-1.143358E2,1E0,5.75895E1,1.7E0,2E-1,1E0,1E0,-1.1967371E2,5.8173717E1,-5.7284117E-2,-5.2628495E-2,-5.0860714E-2,8.635294E-2,-4.4421323E-2,-1.9214293E-2,-3.9426133E-2,5.6286514E-2,-5.0275255E-2,-3.346361E-2,2.4439609E-2,-4.6033036E-2,5.7034787E-2,-1.9178312E-2,1.1707648E-2,5.9000522E-2],"split_indices":[3,0,0,1,1,3,1,3,0,3,3,4,5,1,0,0,0,0,0,0,0,0,0,0,0,0,0,0,0,0,0],"split_type":[0,0,0,0,0,0,0,0,0,0,0,0,0,0,0,0,0,0,0,0,0,0,0,0,0,0,0,0,0,0,0],"sum_hessian":[4.328769E3,3.927232E3,4.0153723E2,3.777249E3,1.4998271E2,2.3799847E2,1.6353874E2,3.740239E3,3.701001E1,1.3952814E2,1.0454579E1,2.1275345E2,2.5245018E1,1.162185E2,4.7320248E1,2.9908552E3,7.4938385E2,3.3498096E1,3.5119135E0,1.0760914E2,3.1918999E1,2.0352824E0,8.419297E0,1.0325717E2,1.09496284E2,2.2234478E1,3.0105395E0,6.314962E0,1.0990354E2,3.4977974E1,1.2342274E1],"tree_param":{"num_deleted":"0","num_feature":"8","num_nodes":"31","size_leaf_vector":"1"}},{"base_weights":[6.287239E-1,7.009074E-1,-1.9808881E-1,7.5027937E-1,3.9438143E-1,-6.877839E-2,-2.946953E-1,6.228295E-1,8.4010756E-1,3.352641E-1,6.1760557E-1,1.6166482E-2,-2.2519588E-1,-1.9075862E-1,-3.8877955E-1,6.642464E-2,2.7647084E-2,9.045792E-2,6.564503E-2,1.4080529E-2,4.7092907E-2,-3.3224744E-3,6.5989085E-2,-4.838375E-2,4.966335E-3,-3.789066E-3,-3.35087E-2,-2.8414926E-2,2.1271254E-3,-3.4987193E-2,-5.1904347E-2],"categories":[],"categories_nodes":[],"categories_segments":[],"categories_sizes":[],"default_left":[0,0,0,0,0,0,0,0,0,0,0,0,0,0,0,0,0,0,0,0,0,0,0,0,0,0,0,0,0,0,0],"id":35,"left_children":[1,3,5,7,9,11,13,15,17,19,21,23,25,27,29,-1,-1,-1,-1,-1,-1,-1,-1,-1,-1,-1,-1,-1,-1,-1,-1],"loss_changes":[4.912693E2,1.1424487E2,8.243599E0,7.409302E1,1.36763E1,3.7795506E0,3.6255226E0,3.852478E1,4.463916E1,2.1934647E1,6.051529E0,3.1242108E0,2.047317E0,3.6043916E0,8.199749E-1,0E0,0E0,0E0,0E0,0E0,0E0,0E0,0E0,0E0,0E0,0E0,0E0,0E0,0E0,0E0,0E0],"parents":[2147483647,0,0,1,1,2,2,3,3,4,4,5,5,6,6,7,7,8,8,9,9,10,10,11,11,12,12,13,13,14,14],"right_children":[2,4,6,8,10,12,14,16,18,20,22,24,26,28,30,-1,-1,-1,-1,-1,-1,-1,-1,-1,-1,-1,-1,-1,-1,-1,-1],"split_conditions":[1.2E0,1E0,2.5E0,1E0,-1.1167838E2,5.71073E1,5.6375336E1,2E-1,5.609215E1,1E0,5.4994682E1,1.9E0,1E0,5.590345E1,5.8806984E1,6.642464E-2,2.7647084E-2,9.045792E-2,6.564503E-2,1.4080529E-2,4.7092907E-2,-3.3224744E-3,6.5989085E-2,-4.838375E-2,4.966335E-3,-3.789066E-3,-3.35087E-2,-2.8414926E-2,2.1271254E-3,-3.4987193E-2,-5.1904347E-2],"split_indices":[3,3,3,4,1,0,0,3,0,7,0,3,4,0,0,0,0,0,0,0,0,0,0,0,0,0,0,0,0,0,0],"split_type":[0,0,0,0,0,0,0,0,0,0,0,0,0,0,0,0,0,0,0,0,0,0,0,0,0,0,0,0,0,0,0],"sum_hessian":[8.228083E3,7.5675615E3,6.6052094E2,6.5165054E3,1.0510564E3,2.8318372E2,3.7733722E2,2.6973662E3,3.819139E3,8.329618E2,2.1809465E2,1.8410135E2,9.908237E1,1.8071996E2,1.9661728E2,2.4084504E3,2.889157E2,2.8239019E3,9.952371E2,3.4314462E2,4.8981717E2,1.3318476E1,2.0477617E2,1.0715029E1,1.7338632E2,3.7133884E1,6.1948483E1,1.2522376E2,5.5496185E1,1.5423561E2,4.2381664E1],"tree_param":{"num_deleted":"0","num_feature":"8","num_nodes":"31","size_leaf_vector":"1"}},{"base_weights":[1.2705593E-1,-2.6492825E-2,4.1565013E-1,9.27679E-2,-4.2197445E-1,4.5074385E-1,2.1745718E-1,1.6898127E-2,4.7653642E-1,1.3063987E-2,-5.249144E-1,3.8340652E-1,5.5213064E-1,3.088358E-1,2.633906E-2,1.3486341E-2,-1.36969825E-2,5.0580498E-2,-2.171949E-2,7.2896825E-3,-2.7082069E-2,-5.444584E-2,5.6021416E-4,4.303399E-2,1.8213935E-2,5.9465874E-2,2.9170841E-2,3.5906237E-2,-5.347047E-3,3.0495042E-2,-2.8757358E-3],"categories":[],"categories_nodes":[],"categories_segments":[],"categories_sizes":[],"default_left":[0,0,0,0,0,0,0,0,0,0,0,0,0,0,0,0,0,0,0,0,0,0,0,0,0,0,0,0,0,0,0],"id":36,"left_children":[1,3,5,7,9,11,13,15,17,19,21,23,25,27,29,-1,-1,-1,-1,-1,-1,-1,-1,-1,-1,-1,-1,-1,-1,-1,-1],"loss_changes":[2.6565247E2,1.8463199E2,1.4382202E1,8.756774E1,4.0622803E1,1.1857086E1,5.4950647E0,4.5620136E1,1.0189812E1,2.984031E0,7.6076355E0,9.986816E0,7.6151276E0,3.8969193E0,1.5902187E0,0E0,0E0,0E0,0E0,0E0,0E0,0E0,0E0,0E0,0E0,0E0,0E0,0E0,0E0,0E0,0E0],"parents":[2147483647,0,0,1,1,2,2,3,3,4,4,5,5,6,6,7,7,8,8,9,9,10,10,11,11,12,12,13,13,14,14],"right_children":[2,4,6,8,10,12,14,16,18,20,22,24,26,28,30,-1,-1,-1,-1,-1,-1,-1,-1,-1,-1,-1,-1,-1,-1,-1,-1],"split_conditions":[1E0,1E0,5E0,2E-1,1E0,1.2E0,5.7171185E1,1E0,8.696922E-1,-1.1225E2,5.6615932E1,-1.1167838E2,5.871652E1,1.3E1,1E0,1.3486341E-2,-1.36969825E-2,5.0580498E-2,-2.171949E-2,7.2896825E-3,-2.7082069E-2,-5.444584E-2,5.6021416E-4,4.303399E-2,1.8213935E-2,5.9465874E-2,2.9170841E-2,3.5906237E-2,-5.347047E-3,3.0495042E-2,-2.8757358E-3],"split_indices":[3,2,3,3,4,3,0,4,3,1,0,1,0,3,7,0,0,0,0,0,0,0,0,0,0,0,0,0,0,0,0],"split_type":[0,0,0,0,0,0,0,0,0,0,0,0,0,0,0,0,0,0,0,0,0,0,0,0,0,0,0,0,0,0,0],"sum_hessian":[5.9936235E3,3.9127327E3,2.080891E3,3.006779E3,9.059535E2,1.7667765E3,3.1411472E2,2.5113396E3,4.954395E2,1.7351752E2,7.32436E2,1.0645342E3,7.022424E2,2.12092E2,1.0202273E2,1.4215836E3,1.089756E3,4.7564304E2,1.979649E1,1.439262E2,2.959133E1,7.0638666E2,2.6049286E1,8.623136E2,2.0222055E2,6.025585E2,9.968387E1,1.862773E2,2.5814688E1,1.6095617E1,8.592711E1],"tree_param":{"num_deleted":"0","num_feature":"8","num_nodes":"31","size_leaf_vector":"1"}},{"base_weights":[-3.912615E-1,-4.8610765E-1,5.039969E-2,-5.1668936E-1,-3.4437045E-1,-1.3780977E-1,1.533588E-1,-5.2222127E-1,-3.2007083E-1,-3.560324E-1,-9.782271E-3,4.0192276E-2,-2.516801E-1,3.0404574E-1,1.0212345E-1,-5.313569E-2,-4.6924274E-2,-4.48806E-2,-2.519559E-2,-2.8843284E-2,-4.170817E-2,2.3193946E-2,-1.8739963E-2,5.015538E-2,9.567778E-5,-6.3699405E-3,-3.0825589E-2,-4.8042566E-2,3.2425348E-2,-1.220708E-3,1.8140478E-2],"categories":[],"categories_nodes":[],"categories_segments":[],"categories_sizes":[],"default_left":[0,0,0,0,0,0,0,0,0,0,0,0,0,0,0,0,0,0,0,0,0,0,0,0,0,0,0,0,0,0,0],"id":37,"left_children":[1,3,5,7,9,11,13,15,17,19,21,23,25,27,29,-1,-1,-1,-1,-1,-1,-1,-1,-1,-1,-1,-1,-1,-1,-1,-1],"loss_changes":[1.8328198E2,1.5432861E1,1.5025293E1,3.0526733E0,2.502159E0,5.5703864E0,3.8366976E0,1.1434326E0,6.1993027E-1,2.440445E0,1.0161978E0,1.9524366E0,1.761076E0,2.1628475E0,3.404595E0,0E0,0E0,0E0,0E0,0E0,0E0,0E0,0E0,0E0,0E0,0E0,0E0,0E0,0E0,0E0,0E0],"parents":[2147483647,0,0,1,1,2,2,3,3,4,4,5,5,6,6,7,7,8,8,9,9,10,10,11,11,12,12,13,13,14,14],"right_children":[2,4,6,8,10,12,14,16,18,20,22,24,26,28,30,-1,-1,-1,-1,-1,-1,-1,-1,-1,-1,-1,-1,-1,-1,-1,-1],"split_conditions":[1.5E0,1E0,2.5E0,5.8806984E1,5.9579967E1,-1.1621538E2,-1.1707155E2,1E0,1E0,1E0,-1.17647385E2,1.7E0,5.5066574E1,5.3582516E1,5E0,-5.313569E-2,-4.6924274E-2,-4.48806E-2,-2.519559E-2,-2.8843284E-2,-4.170817E-2,2.3193946E-2,-1.8739963E-2,5.015538E-2,9.567778E-5,-6.3699405E-3,-3.0825589E-2,-4.8042566E-2,3.2425348E-2,-1.220708E-3,1.8140478E-2],"split_indices":[3,3,3,0,0,1,1,5,4,7,1,3,0,0,3,0,0,0,0,0,0,0,0,0,0,0,0,0,0,0,0],"split_type":[0,0,0,0,0,0,0,0,0,0,0,0,0,0,0,0,0,0,0,0,0,0,0,0,0,0,0,0,0,0,0],"sum_hessian":[4.3737456E3,3.6004524E3,7.7329315E2,2.9592988E3,6.4115356E2,2.7332184E2,4.999713E2,2.8767056E3,8.2593124E1,6.1949713E2,2.1656475E1,1.0688552E2,1.6643633E2,1.2560971E2,3.743616E2,2.445905E3,4.308006E2,2.6645332E1,5.5947792E1,2.9669394E2,3.2280316E2,9.043383E0,1.2613093E1,7.453877E0,9.943164E1,3.899524E1,1.2744108E2,2.5824826E0,1.2302722E2,1.5364224E2,2.2071938E2],"tree_param":{"num_deleted":"0","num_feature":"8","num_nodes":"31","size_leaf_vector":"1"}},{"base_weights":[-5.1556337E-1,-5.4780895E-1,-2.1299435E-1,-5.6309986E-1,-4.937628E-1,-2.8836825E-1,-1.2439078E-2,-5.669122E-2,-5.311618E-1,-5.053846E-1,-3.5379532E-1,-3.61234E-1,-1.302827E-1,2.7793013E-2,-3.1958824E-1,-5.382184E-2,-4.0401753E-2,-5.1777598E-2,-4.6794396E-2,-4.6245564E-2,-1.9889405E-2,-3.8976528E-2,-2.6009632E-3,-1.666546E-2,1.4488648E-2,2.8295025E-2,-3.0497746E-3,-4.3699667E-2,7.5675757E-3],"categories":[],"categories_nodes":[],"categories_segments":[],"categories_sizes":[],"default_left":[0,0,0,0,0,0,0,0,0,0,0,0,0,0,0,0,0,0,0,0,0,0,0,0,0,0,0,0,0],"id":38,"left_children":[1,3,5,7,9,11,13,-1,15,17,19,21,23,25,27,-1,-1,-1,-1,-1,-1,-1,-1,-1,-1,-1,-1,-1,-1],"loss_changes":[3.9890747E1,2.7838135E0,5.991047E0,4.9621582E-2,1.1635132E0,3.272583E0,1.3604031E0,0E0,7.2402954E-2,1.1010742E-1,1.0289822E0,1.8711739E0,9.498075E-1,1.4606189E0,6.246153E-1,0E0,0E0,0E0,0E0,0E0,0E0,0E0,0E0,0E0,0E0,0E0,0E0,0E0,0E0],"parents":[2147483647,0,0,1,1,2,2,3,3,4,4,5,5,6,6,8,8,9,9,10,10,11,11,12,12,13,13,14,14],"right_children":[2,4,6,8,10,12,14,-1,16,18,20,22,24,26,28,-1,-1,-1,-1,-1,-1,-1,-1,-1,-1,-1,-1,-1,-1],"split_conditions":[2.5E0,9E-1,7E0,5.8050083E1,5.9201683E1,5.7711334E1,1E0,-5.669122E-2,-1.1422985E2,1.5E0,1.5E0,-1.106488E2,5.965815E1,-1.175233E2,-1.1153812E2,-5.382184E-2,-4.0401753E-2,-5.1777598E-2,-4.6794396E-2,-4.6245564E-2,-1.9889405E-2,-3.8976528E-2,-2.6009632E-3,-1.666546E-2,1.4488648E-2,2.8295025E-2,-3.0497746E-3,-4.3699667E-2,7.5675757E-3],"split_indices":[3,3,3,0,0,0,5,0,1,3,3,1,0,1,1,0,0,0,0,0,0,0,0,0,0,0,0,0,0],"split_type":[0,0,0,0,0,0,0,0,0,0,0,0,0,0,0,0,0,0,0,0,0,0,0,0,0,0,0,0,0],"sum_hessian":[4.099592E3,3.704033E3,3.9555875E2,2.879839E3,8.241939E2,2.871881E2,1.08370636E2,2.5577817E3,3.220574E2,7.585953E2,6.5598625E1,1.9569989E2,9.148823E1,9.662383E1,1.1746809E1,3.0205972E2,1.9997683E1,5.6032214E2,1.9827316E2,3.738693E1,2.8211699E1,1.8020018E2,1.5499704E1,8.115545E1,1.033278E1,1.7252037E1,7.9371796E1,8.97524E0,2.7715688E0],"tree_param":{"num_deleted":"0","num_feature":"8","num_nodes":"29","size_leaf_vector":"1"}},{"base_weights":[-5.1431423E-1,-5.460105E-1,-2.1456154E-1,-5.550298E-1,-3.2247838E-1,-3.542924E-1,-3.332164E-2,-5.6567144E-1,-5.1307374E-1,-3.767977E-1,3.4298408E-1,-4.1975015E-1,1.6958414E-1,-1.432785E-1,2.09396E-1,-5.6667056E-2,-3.943124E-2,-5.16536E-2,-5.8989306E-3,-4.3331146E-2,-1.8348867E-2,-3.859303E-2,5.316634E-2,-5.0308656E-2,-3.334538E-2,5.667277E-4,6.189232E-2,-2.4756994E-2,1.5275552E-2,1.0814786E-2,6.871016E-2],"categories":[],"categories_nodes":[],"categories_segments":[],"categories_sizes":[],"default_left":[0,0,0,0,0,0,0,0,0,0,0,0,0,0,0,0,0,0,0,0,0,0,0,0,0,0,0,0,0,0,0],"id":39,"left_children":[1,3,5,7,9,11,13,15,17,19,21,23,25,27,29,-1,-1,-1,-1,-1,-1,-1,-1,-1,-1,-1,-1,-1,-1,-1,-1],"loss_changes":[3.885559E1,7.29895E0,9.963995E0,1.3009033E0,5.4154024E0,7.6950817E0,4.636158E0,2.616577E-1,1.1199951E0,1.4027348E0,1.7949902E0,1.2556038E0,1.8677499E0,3.7233307E0,2.5479605E0,0E0,0E0,0E0,0E0,0E0,0E0,0E0,0E0,0E0,0E0,0E0,0E0,0E0,0E0,0E0,0E0],"parents":[2147483647,0,0,1,1,2,2,3,3,4,4,5,5,6,6,7,7,8,8,9,9,10,10,11,11,12,12,13,13,14,14],"right_children":[2,4,6,8,10,12,14,16,18,20,22,24,26,28,30,-1,-1,-1,-1,-1,-1,-1,-1,-1,-1,-1,-1,-1,-1,-1,-1],"split_conditions":[2.5E0,5.9039867E1,5.703132E1,1E0,-1.1080403E2,1.5E1,-1.1443528E2,-1.1048122E2,-1.10230255E2,1.7E0,2E-1,1E0,5.616635E1,5.9265568E1,5.911907E1,-5.6667056E-2,-3.943124E-2,-5.16536E-2,-5.8989306E-3,-4.3331146E-2,-1.8348867E-2,-3.859303E-2,5.316634E-2,-5.0308656E-2,-3.334538E-2,5.667277E-4,6.189232E-2,-2.4756994E-2,1.5275552E-2,1.0814786E-2,6.871016E-2],"split_indices":[3,0,0,3,1,3,1,1,1,3,3,4,0,0,0,0,0,0,0,0,0,0,0,0,0,0,0,0,0,0,0],"split_type":[0,0,0,0,0,0,0,0,0,0,0,0,0,0,0,0,0,0,0,0,0,0,0,0,0,0,0,0,0,0,0],"sum_hessian":[4.1009463E3,3.7080322E3,3.9291418E2,3.5627935E3,1.452389E2,2.2132443E2,1.7158974E2,2.8320073E3,7.307861E2,1.3467929E2,1.05596075E1,1.9691847E2,2.4405968E1,1.1837345E2,5.3216293E1,2.8132976E3,1.8709557E1,7.2511975E2,5.666334E0,1.03252075E2,3.142722E1,1.9563437E0,8.603264E0,9.7720276E1,9.919819E1,1.8624462E1,5.7815065E0,8.765626E1,3.0717192E1,4.492168E1,8.294613E0],"tree_param":{"num_deleted":"0","num_feature":"8","num_nodes":"31","size_leaf_vector":"1"}},{"base_weights":[5.785854E-1,6.437466E-1,-1.8796319E-1,5.7509446E-1,8.325741E-1,-6.294171E-2,-2.83169E-1,6.6354597E-1,3.4228787E-1,5.813978E-1,8.7885475E-1,1.896922E-2,-2.1597724E-1,-1.806195E-1,-3.7765306E-1,6.823068E-2,2.7460394E-2,3.7918996E-2,7.94418E-3,7.049789E-2,1.0203879E-2,8.79662E-2,-5.779166E-3,-4.1223406E-3,2.955995E-2,-4.2226285E-2,-1.1467791E-2,-2.4529193E-2,1.146903E-2,-2.9693028E-2,-4.4165548E-2],"categories":[],"categories_nodes":[],"categories_segments":[],"categories_sizes":[],"default_left":[0,0,0,0,0,0,0,0,0,0,0,0,0,0,0,0,0,0,0,0,0,0,0,0,0,0,0,0,0,0,0],"id":40,"left_children":[1,3,5,7,9,11,13,15,17,19,21,23,25,27,29,-1,-1,-1,-1,-1,-1,-1,-1,-1,-1,-1,-1,-1,-1,-1,-1],"loss_changes":[4.1332324E2,9.836133E1,7.7057343E0,1.149823E2,2.3095215E1,3.5365944E0,3.4982567E0,2.9389282E1,1.4931305E1,1.882006E1,1.3459473E0,3.0839198E0,2.0062966E0,3.4357543E0,8.5388565E-1,0E0,0E0,0E0,0E0,0E0,0E0,0E0,0E0,0E0,0E0,0E0,0E0,0E0,0E0,0E0,0E0],"parents":[2147483647,0,0,1,1,2,2,3,3,4,4,5,5,6,6,7,7,8,8,9,9,10,10,11,11,12,12,13,13,14,14],"right_children":[2,4,6,8,10,12,14,16,18,20,22,24,26,28,30,-1,-1,-1,-1,-1,-1,-1,-1,-1,-1,-1,-1,-1,-1,-1,-1],"split_conditions":[1.2E0,1E0,2.5E0,2E-1,1E0,5.71073E1,5.6375336E1,5.8696167E1,5.8696167E1,3E-1,5.9579967E1,-1.11340385E2,5.8050083E1,-1.1080403E2,4.5E0,6.823068E-2,2.7460394E-2,3.7918996E-2,7.94418E-3,7.049789E-2,1.0203879E-2,8.79662E-2,-5.779166E-3,-4.1223406E-3,2.955995E-2,-4.2226285E-2,-1.1467791E-2,-2.4529193E-2,1.146903E-2,-2.9693028E-2,-4.4165548E-2],"split_indices":[3,2,3,3,4,0,0,0,0,3,0,1,0,1,3,0,0,0,0,0,0,0,0,0,0,0,0,0,0,0,0],"split_type":[0,0,0,0,0,0,0,0,0,0,0,0,0,0,0,0,0,0,0,0,0,0,0,0,0,0,0,0,0,0,0],"sum_hessian":[8.271433E3,7.6235454E3,6.4788727E2,5.5938354E3,2.0297102E3,2.8080438E2,3.670829E2,4.0523523E3,1.5414829E3,3.179078E2,1.7118024E3,1.8347632E2,9.732805E1,1.7742451E2,1.8965837E2,3.8651602E3,1.8719226E2,1.3513224E3,1.9016063E2,2.5237392E2,6.5533905E1,1.710389E3,1.4133315E0,1.5138672E2,3.2089607E1,3.1010303E1,6.631775E1,1.4568835E2,3.173617E1,8.636728E1,1.032911E2],"tree_param":{"num_deleted":"0","num_feature":"8","num_nodes":"31","size_leaf_vector":"1"}},{"base_weights":[1.2357276E-1,2.0792018E-1,-3.1268346E-1,-1.7213926E-2,3.6085594E-1,1.9856258E-1,-4.9947384E-1,-4.620634E-2,6.8002605E-1,4.5657694E-1,2.898843E-1,-2.81526E-2,5.264847E-1,-5.4249257E-1,-2.0849451E-1,7.471859E-3,-2.0791626E-2,4.692906E-2,1.03153564E-1,5.726446E-2,3.8464036E-2,3.477355E-4,3.3956565E-2,-8.655081E-3,4.253706E-2,-3.5774063E-2,5.8381822E-2,-5.5129737E-2,9.832087E-3,-8.568847E-3,-4.7783375E-2],"categories":[],"categories_nodes":[],"categories_segments":[],"categories_sizes":[],"default_left":[0,0,0,0,0,0,0,0,0,0,0,0,0,0,0,0,0,0,0,0,0,0,0,0,0,0,0,0,0,0,0],"id":41,"left_children":[1,3,5,7,9,11,13,15,17,19,21,23,25,27,29,-1,-1,-1,-1,-1,-1,-1,-1,-1,-1,-1,-1,-1,-1,-1,-1],"loss_changes":[2.1989494E2,1.7239554E2,9.256933E1,4.0992203E1,2.0122406E1,1.9331951E1,8.767914E0,3.807561E1,5.512806E0,1.0364258E1,2.4399277E1,4.1306214E0,5.595783E0,3.5381622E0,3.0353508E0,0E0,0E0,0E0,0E0,0E0,0E0,0E0,0E0,0E0,0E0,0E0,0E0,0E0,0E0,0E0,0E0],"parents":[2147483647,0,0,1,1,2,2,3,3,4,4,5,5,6,6,7,7,8,8,9,9,10,10,11,11,12,12,13,13,14,14],"right_children":[2,4,6,8,10,12,14,16,18,20,22,24,26,28,30,-1,-1,-1,-1,-1,-1,-1,-1,-1,-1,-1,-1,-1,-1,-1,-1],"split_conditions":[1E0,1E-1,1E0,5.8696167E1,1E0,3E-1,5.4474617E1,1E0,1E0,5.5345833E1,2E-1,5.7335835E1,5.0823833E1,9E-1,-1.1167838E2,7.471859E-3,-2.0791626E-2,4.692906E-2,1.03153564E-1,5.726446E-2,3.8464036E-2,3.477355E-4,3.3956565E-2,-8.655081E-3,4.253706E-2,-3.5774063E-2,5.8381822E-2,-5.5129737E-2,9.832087E-3,-8.568847E-3,-4.7783375E-2],"split_indices":[2,3,4,0,7,3,0,4,5,0,3,0,0,3,1,0,0,0,0,0,0,0,0,0,0,0,0,0,0,0,0],"split_type":[0,0,0,0,0,0,0,0,0,0,0,0,0,0,0,0,0,0,0,0,0,0,0,0,0,0,0,0,0,0,0],"sum_hessian":[5.973113E3,5.005797E3,9.673161E2,2.0252899E3,2.9805068E3,2.5883118E2,7.08485E2,1.9453334E3,7.995651E1,1.2666779E3,1.713829E3,1.5357106E2,1.052601E2,6.164795E2,9.200549E1,1.1133329E3,8.320005E2,5.1447823E1,2.8508692E1,4.8200922E2,7.846686E2,2.5350032E2,1.4603286E3,1.3676906E2,1.6801994E1,6.0904503E0,9.9169655E1,6.0826166E2,8.217828E0,6.409797E1,2.7907524E1],"tree_param":{"num_deleted":"0","num_feature":"8","num_nodes":"31","size_leaf_vector":"1"}},{"base_weights":[-3.7931657E-1,-4.76331E-1,4.913179E-2,-5.0814295E-1,-3.3243263E-1,-1.2916213E-1,1.4456889E-1,-5.1395035E-1,-3.0674E-1,-2.565854E-1,-3.890453E-1,4.0946167E-2,-2.4035393E-1,4.1927837E-2,2.1294379E-1,-5.234739E-2,-4.5935314E-2,-4.3832462E-2,-2.3838578E-2,-9.82647E-3,-3.8412545E-2,-3.9393596E-2,5.6354553E-2,4.6562012E-2,3.722716E-4,-5.595746E-3,-2.9671684E-2,1.1853944E-2,-2.4450196E-2,7.885883E-2,2.0189092E-2],"categories":[],"categories_nodes":[],"categories_segments":[],"categories_sizes":[],"default_left":[0,0,0,0,0,0,0,0,0,0,0,0,0,0,0,0,0,0,0,0,0,0,0,0,0,0,0,0,0,0,0],"id":42,"left_children":[1,3,5,7,9,11,13,15,17,19,21,23,25,27,29,-1,-1,-1,-1,-1,-1,-1,-1,-1,-1,-1,-1,-1,-1,-1,-1],"loss_changes":[1.7411981E2,1.5464966E1,1.3192492E1,3.1114502E0,2.5676193E0,5.1254597E0,3.5334454E0,1.1713257E0,6.22396E-1,5.3826885E0,1.8701515E0,1.7017282E0,1.6847248E0,4.4847326E0,1.766715E0,0E0,0E0,0E0,0E0,0E0,0E0,0E0,0E0,0E0,0E0,0E0,0E0,0E0,0E0,0E0,0E0],"parents":[2147483647,0,0,1,1,2,2,3,3,4,4,5,5,6,6,7,7,8,8,9,9,10,10,11,11,12,12,13,13,14,14],"right_children":[2,4,6,8,10,12,14,16,18,20,22,24,26,28,30,-1,-1,-1,-1,-1,-1,-1,-1,-1,-1,-1,-1,-1,-1,-1,-1],"split_conditions":[1.5E0,1E0,2.5E0,5.8806984E1,-1.15653755E2,-1.1621538E2,5.61371E1,1E0,1E0,1E0,5.9885334E1,1.7E0,5.5066574E1,5.590345E1,5.616635E1,-5.234739E-2,-4.5935314E-2,-4.3832462E-2,-2.3838578E-2,-9.82647E-3,-3.8412545E-2,-3.9393596E-2,5.6354553E-2,4.6562012E-2,3.722716E-4,-5.595746E-3,-2.9671684E-2,1.1853944E-2,-2.4450196E-2,7.885883E-2,2.0189092E-2],"split_indices":[3,3,3,0,1,1,0,5,4,7,0,3,0,0,0,0,0,0,0,0,0,0,0,0,0,0,0,0,0,0,0],"split_type":[0,0,0,0,0,0,0,0,0,0,0,0,0,0,0,0,0,0,0,0,0,0,0,0,0,0,0,0,0,0,0],"sum_hessian":[4.187464E3,3.4142551E3,7.732084E2,2.7940396E3,6.2021576E2,2.694581E2,5.037503E2,2.7142236E3,7.981574E1,2.6744156E2,3.527742E2,1.0676062E2,1.6269748E2,2.0205237E2,3.0169794E2,2.3037778E3,4.104459E2,2.5436644E1,5.4379097E1,1.2011202E2,1.4732953E2,3.5155576E2,1.2184414E0,7.6761675E0,9.908445E1,3.8554787E1,1.2414269E2,1.598763E2,4.2176083E1,4.358455E0,2.9733948E2],"tree_param":{"num_deleted":"0","num_feature":"8","num_nodes":"31","size_leaf_vector":"1"}},{"base_weights":[-5.0738966E-1,-5.411203E-1,-2.025479E-1,-5.5720407E-1,-4.851726E-1,-2.765644E-1,-1.0432532E-2,-5.6121904E-2,-5.238966E-1,-4.9719352E-1,-3.4254423E-1,-3.495895E-1,-1.2107533E-1,-3.0838193E-2,5.5682236E-1,-3.934097E-2,-5.3138983E-2,-5.1014114E-2,-4.583102E-2,-4.214457E-2,-1.2383076E-2,-3.7847187E-2,-1.9401271E-3,-2.2528533E-2,-2.0198866E-3,6.271686E-4,-3.1037465E-2,7.637051E-2,8.3309E-3],"categories":[],"categories_nodes":[],"categories_segments":[],"categories_sizes":[],"default_left":[0,0,0,0,0,0,0,0,0,0,0,0,0,0,0,0,0,0,0,0,0,0,0,0,0,0,0,0,0],"id":43,"left_children":[1,3,5,7,9,11,13,-1,15,17,19,21,23,25,27,-1,-1,-1,-1,-1,-1,-1,-1,-1,-1,-1,-1,-1,-1],"loss_changes":[3.98125E1,2.8747559E0,5.520035E0,6.80542E-2,1.181015E0,3.140808E0,1.279571E0,0E0,9.047699E-2,1.3104248E-1,1.0605078E0,1.806736E0,9.532933E-1,1.1038387E0,3.124957E-1,0E0,0E0,0E0,0E0,0E0,0E0,0E0,0E0,0E0,0E0,0E0,0E0,0E0,0E0],"parents":[2147483647,0,0,1,1,2,2,3,3,4,4,5,5,6,6,8,8,9,9,10,10,11,11,12,12,13,13,14,14],"right_children":[2,4,6,8,10,12,14,-1,16,18,20,22,24,26,28,-1,-1,-1,-1,-1,-1,-1,-1,-1,-1,-1,-1,-1,-1],"split_conditions":[2.5E0,9E-1,7E0,5.8050083E1,5.9201683E1,5.7711334E1,5.97716E1,-5.6121904E-2,5.8173717E1,1.5E0,-1.1601472E2,-1.106488E2,-1.17026985E2,1E0,-1.175233E2,-3.934097E-2,-5.3138983E-2,-5.1014114E-2,-4.583102E-2,-4.214457E-2,-1.2383076E-2,-3.7847187E-2,-1.9401271E-3,-2.2528533E-2,-2.0198866E-3,6.271686E-4,-3.1037465E-2,7.637051E-2,8.3309E-3],"split_indices":[3,3,3,0,0,0,0,0,0,3,1,1,1,5,1,0,0,0,0,0,0,0,0,0,0,0,0,0,0],"split_type":[0,0,0,0,0,0,0,0,0,0,0,0,0,0,0,0,0,0,0,0,0,0,0,0,0,0,0,0,0],"sum_hessian":[3.8815293E3,3.4941304E3,3.8739908E2,2.7069724E3,7.8715784E2,2.7933847E2,1.0806062E2,2.4016248E3,3.0534784E2,7.236792E2,6.3478626E1,1.8922229E2,9.011617E1,1.05221176E2,2.8394485E0,1.9487957E1,2.858599E2,5.338081E2,1.8987108E2,4.5968452E1,1.7510172E1,1.7386745E2,1.535484E1,4.371908E1,4.6397087E1,9.37526E1,1.1468569E1,1.5495753E0,1.289873E0],"tree_param":{"num_deleted":"0","num_feature":"8","num_nodes":"29","size_leaf_vector":"1"}},{"base_weights":[-5.061607E-1,-5.392537E-1,-2.0446795E-1,-5.48731E-1,-3.104899E-1,-3.4316555E-1,-2.9224088E-2,-5.5993605E-1,-5.0517577E-1,-3.6504176E-1,3.2896036E-1,-4.0907478E-1,1.6047302E-1,-1.24859616E-1,2.4038072E-1,-5.6099426E-2,-3.8192507E-2,-5.267433E-2,-4.1520704E-2,-4.2182382E-2,-1.7687278E-2,-3.7737567E-2,5.031663E-2,-4.947872E-2,-3.2159712E-2,-1.3622495E-2,3.8238768E-2,-2.1999452E-2,1.934435E-2,8.367805E-3,7.7687316E-2],"categories":[],"categories_nodes":[],"categories_segments":[],"categories_sizes":[],"default_left":[0,0,0,0,0,0,0,0,0,0,0,0,0,0,0,0,0,0,0,0,0,0,0,0,0,0,0,0,0,0,0],"id":44,"left_children":[1,3,5,7,9,11,13,15,17,19,21,23,25,27,29,-1,-1,-1,-1,-1,-1,-1,-1,-1,-1,-1,-1,-1,-1,-1,-1],"loss_changes":[3.8665527E1,7.416321E0,9.360384E0,1.3563843E0,5.0562973E0,7.2059765E0,4.4497104E0,2.8723145E-1,1.1347198E0,1.323555E0,1.6232814E0,1.2691975E0,1.7383463E0,3.894042E0,3.737074E0,0E0,0E0,0E0,0E0,0E0,0E0,0E0,0E0,0E0,0E0,0E0,0E0,0E0,0E0,0E0,0E0],"parents":[2147483647,0,0,1,1,2,2,3,3,4,4,5,5,6,6,7,7,8,8,9,9,10,10,11,11,12,12,13,13,14,14],"right_children":[2,4,6,8,10,12,14,16,18,20,22,24,26,28,30,-1,-1,-1,-1,-1,-1,-1,-1,-1,-1,-1,-1,-1,-1,-1,-1],"split_conditions":[2.5E0,5.9039867E1,5.703132E1,1E0,-1.1080403E2,1.5E1,6E0,-1.1048122E2,5.7763798E1,1.7E0,2E-1,1E0,1E0,-1.1328E2,5.935015E1,-5.6099426E-2,-3.8192507E-2,-5.267433E-2,-4.1520704E-2,-4.2182382E-2,-1.7687278E-2,-3.7737567E-2,5.031663E-2,-4.947872E-2,-3.2159712E-2,-1.3622495E-2,3.8238768E-2,-2.1999452E-2,1.934435E-2,8.367805E-3,7.7687316E-2],"split_indices":[3,0,0,3,1,3,3,1,0,3,3,4,4,1,0,0,0,0,0,0,0,0,0,0,0,0,0,0,0,0,0],"split_type":[0,0,0,0,0,0,0,0,0,0,0,0,0,0,0,0,0,0,0,0,0,0,0,0,0,0,0,0,0,0,0],"sum_hessian":[3.8828208E3,3.4983008E3,3.8452002E2,3.357794E3,1.4050684E2,2.1410634E2,1.704137E2,2.6612944E3,6.964994E2,1.2985773E2,1.0649109E1,1.8949554E2,2.4610786E1,1.2618841E2,4.4225285E1,2.6434285E3,1.7866137E1,5.5790295E2,1.3859645E2,9.880156E1,3.1056166E1,1.8760815E0,8.773027E0,9.3361664E1,9.613389E1,1.0696198E1,1.3914588E1,9.738938E1,2.8799028E1,3.5122437E1,9.102848E0],"tree_param":{"num_deleted":"0","num_feature":"8","num_nodes":"31","size_leaf_vector":"1"}},{"base_weights":[5.349088E-1,5.9446704E-1,-1.7888305E-1,5.288078E-1,7.7945393E-1,-5.97617E-2,-2.7165335E-1,6.365051E-1,3.6417854E-1,5.3449976E-1,8.2583594E-1,-1.0943657E-1,1.8052408E-1,-1.7099798E-1,-3.66203E-1,6.786694E-2,4.6053763E-2,2.3467837E-2,4.538931E-2,6.474527E-2,9.546084E-3,8.313947E-2,6.289276E-2,-2.8693508E-3,-2.4017885E-2,-6.3075323E-4,8.531161E-2,-2.6273495E-2,2.9803005E-3,-3.254227E-2,-5.0535806E-2],"categories":[],"categories_nodes":[],"categories_segments":[],"categories_sizes":[],"default_left":[0,0,0,0,0,0,0,0,0,0,0,0,0,0,0,0,0,0,0,0,0,0,0,0,0,0,0,0,0,0,0],"id":45,"left_children":[1,3,5,7,9,11,13,15,17,19,21,23,25,27,29,-1,-1,-1,-1,-1,-1,-1,-1,-1,-1,-1,-1,-1,-1,-1,-1],"loss_changes":[3.5163574E2,9.229053E1,7.029663E0,9.969641E1,2.2250244E1,3.3670027E0,3.3459206E0,2.4957031E1,2.5816101E1,1.5847191E1,1.3132324E0,2.4528818E0,6.0898275E0,3.2379746E0,8.785877E-1,0E0,0E0,0E0,0E0,0E0,0E0,0E0,0E0,0E0,0E0,0E0,0E0,0E0,0E0,0E0,0E0],"parents":[2147483647,0,0,1,1,2,2,3,3,4,4,5,5,6,6,7,7,8,8,9,9,10,10,11,11,12,12,13,13,14,14],"right_children":[2,4,6,8,10,12,14,16,18,20,22,24,26,28,30,-1,-1,-1,-1,-1,-1,-1,-1,-1,-1,-1,-1,-1,-1,-1,-1],"split_conditions":[1.2E0,1E0,2.5E0,1E-1,1E0,1E0,5.6375336E1,1E0,1E0,3E-1,5.6587082E1,5.71073E1,-1.10921715E2,5.590345E1,5.8806984E1,6.786694E-2,4.6053763E-2,2.3467837E-2,4.538931E-2,6.474527E-2,9.546084E-3,8.313947E-2,6.289276E-2,-2.8693508E-3,-2.4017885E-2,-6.3075323E-4,8.531161E-2,-2.6273495E-2,2.9803005E-3,-3.254227E-2,-5.0535806E-2],"split_indices":[3,2,3,3,4,5,0,5,7,3,0,0,1,0,0,0,0,0,0,0,0,0,0,0,0,0,0,0,0,0,0],"split_type":[0,0,0,0,0,0,0,0,0,0,0,0,0,0,0,0,0,0,0,0,0,0,0,0,0,0,0,0,0,0,0],"sum_hessian":[8.267895E3,7.63131E3,6.365844E2,5.6350605E3,1.9962495E3,2.7942896E2,3.5715546E2,3.4048245E3,2.230236E3,3.1980576E2,1.6764438E3,2.320096E2,4.7419357E1,1.743524E2,1.8280304E2,2.7443777E3,6.6044684E2,9.1421344E2,1.3160226E3,2.53987E2,6.581874E1,1.6272833E3,4.9160484E1,1.4418446E2,8.7825134E1,3.7886047E1,9.533309E0,1.1946553E2,5.4886875E1,1.4395471E2,3.8848335E1],"tree_param":{"num_deleted":"0","num_feature":"8","num_nodes":"31","size_leaf_vector":"1"}},{"base_weights":[1.2044679E-1,1.9737466E-1,-2.9876032E-1,-8.356339E-3,3.3335623E-1,1.8911093E-1,-4.8983845E-1,-8.477426E-2,2.4131401E-1,4.2119548E-1,2.6790565E-1,-1.8234199E-2,4.7787002E-1,-5.356756E-1,-1.9095656E-1,-9.744316E-3,8.142428E-2,1.9234288E-2,9.227861E-2,4.3671757E-2,-3.3506663E-3,1.0783972E-3,3.1137964E-2,-7.0363604E-3,4.4589903E-2,-3.5299283E-2,5.3025752E-2,-5.4500278E-2,9.431574E-3,-6.9121993E-3,-4.6506714E-2],"categories":[],"categories_nodes":[],"categories_segments":[],"categories_sizes":[],"default_left":[0,0,0,0,0,0,0,0,0,0,0,0,0,0,0,0,0,0,0,0,0,0,0,0,0,0,0,0,0,0,0],"id":46,"left_children":[1,3,5,7,9,11,13,15,17,19,21,23,25,27,29,-1,-1,-1,-1,-1,-1,-1,-1,-1,-1,-1,-1,-1,-1,-1,-1],"loss_changes":[1.9192853E2,1.4065753E2,8.612879E1,3.8212036E1,1.7289948E1,1.5603251E1,8.987061E0,1.754374E1,1.5486206E1,9.124374E0,1.9416573E1,3.7226963E0,4.927061E0,3.4282837E0,2.9659588E0,0E0,0E0,0E0,0E0,0E0,0E0,0E0,0E0,0E0,0E0,0E0,0E0,0E0,0E0,0E0,0E0],"parents":[2147483647,0,0,1,1,2,2,3,3,4,4,5,5,6,6,7,7,8,8,9,9,10,10,11,11,12,12,13,13,14,14],"right_children":[2,4,6,8,10,12,14,16,18,20,22,24,26,28,30,-1,-1,-1,-1,-1,-1,-1,-1,-1,-1,-1,-1,-1,-1,-1,-1],"split_conditions":[1E0,1E-1,1E0,1E0,1E0,3E-1,5.4474617E1,5.9201683E1,5.8696167E1,7E0,2E-1,5.79563E1,5.0823833E1,9E-1,-1.1167838E2,-9.744316E-3,8.142428E-2,1.9234288E-2,9.227861E-2,4.3671757E-2,-3.3506663E-3,1.0783972E-3,3.1137964E-2,-7.0363604E-3,4.4589903E-2,-3.5299283E-2,5.3025752E-2,-5.4500278E-2,9.431574E-3,-6.9121993E-3,-4.6506714E-2],"split_indices":[2,3,4,5,7,3,0,0,0,3,3,0,0,3,1,0,